{"learner":{"attributes":{"scikit_learn":"{\"_estimator_type\": \"classifier\"}"},"feature_names":["rsi","macd_line","sentiment_score"],"feature_types":["float","float","float"],"gradient_booster":{"model":{"gbtree_model_param":{"num_parallel_tree":"1","num_trees":"200"},"iteration_indptr":[0,1,2,3,4,5,6,7,8,9,10,11,12,13,14,15,16,17,18,19,20,21,22,23,24,25,26,27,28,29,30,31,32,33,34,35,36,37,38,39,40,41,42,43,44,45,46,47,48,49,50,51,52,53,54,55,56,57,58,59,60,61,62,63,64,65,66,67,68,69,70,71,72,73,74,75,76,77,78,79,80,81,82,83,84,85,86,87,88,89,90,91,92,93,94,95,96,97,98,99,100,101,102,103,104,105,106,107,108,109,110,111,112,113,114,115,116,117,118,119,120,121,122,123,124,125,126,127,128,129,130,131,132,133,134,135,136,137,138,139,140,141,142,143,144,145,146,147,148,149,150,151,152,153,154,155,156,157,158,159,160,161,162,163,164,165,166,167,168,169,170,171,172,173,174,175,176,177,178,179,180,181,182,183,184,185,186,187,188,189,190,191,192,193,194,195,196,197,198,199,200],"tree_info":[0,0,0,0,0,0,0,0,0,0,0,0,0,0,0,0,0,0,0,0,0,0,0,0,0,0,0,0,0,0,0,0,0,0,0,0,0,0,0,0,0,0,0,0,0,0,0,0,0,0,0,0,0,0,0,0,0,0,0,0,0,0,0,0,0,0,0,0,0,0,0,0,0,0,0,0,0,0,0,0,0,0,0,0,0,0,0,0,0,0,0,0,0,0,0,0,0,0,0,0,0,0,0,0,0,0,0,0,0,0,0,0,0,0,0,0,0,0,0,0,0,0,0,0,0,0,0,0,0,0,0,0,0,0,0,0,0,0,0,0,0,0,0,0,0,0,0,0,0,0,0,0,0,0,0,0,0,0,0,0,0,0,0,0,0,0,0,0,0,0,0,0,0,0,0,0,0,0,0,0,0,0,0,0,0,0,0,0,0,0,0,0,0,0,0,0,0,0,0,0],"trees":[{"base_weights":[-1.346965E-1,-5.6405777E-1,7.30275E-2,-2.0148061E-1,-9.287802E-1,8.786324E-2,-3.4384307E-2,-5.300464E-1,6.357047E-1,-4.334951E-3,-9.9827766E-1,1.0951372E-1,-9.5149934E-1,2.549596E-2,-3.97064E-2,1.00635074E-1,-6.659998E-3,-3.0191306E-2,-5.7355072E-2,6.9984386E-4,8.824472E-2,-1.7875476E-2,-5.3576645E-2],"categories":[],"categories_nodes":[],"categories_segments":[],"categories_sizes":[],"default_left":[0,0,0,0,0,0,0,0,0,0,0,0,0,0,0,0,0,0,0,0,0,0,0],"id":0,"left_children":[1,3,5,7,9,-1,11,13,15,-1,17,19,21,-1,-1,-1,-1,-1,-1,-1,-1,-1,-1],"loss_changes":[1.1558266E1,5.3958387E0,1.5964522E1,6.5118775E0,1.1289616E0,0E0,1.1140076E1,4.9822264E0,7.4484944E0,0E0,4.2808533E-1,1.1546112E1,4.328947E-1,0E0,0E0,0E0,0E0,0E0,0E0,0E0,0E0,0E0,0E0],"parents":[2147483647,0,0,1,1,2,2,3,3,4,4,6,6,7,7,8,8,10,10,11,11,12,12],"right_children":[2,4,6,8,10,-1,12,14,16,-1,18,20,22,-1,-1,-1,-1,-1,-1,-1,-1,-1,-1],"split_conditions":[-2.400851E-2,-1.292266E-1,-1.0709303E-3,-1.3874176E-1,1.6581293E1,8.786324E-2,1.5824535E-1,-2.2233126E-1,-1.3408223E-1,-4.334951E-3,-1.9188448E1,1.4240777E-1,2.9268291E1,2.549596E-2,-3.97064E-2,1.00635074E-1,-6.659998E-3,-3.0191306E-2,-5.7355072E-2,6.9984386E-4,8.824472E-2,-1.7875476E-2,-5.3576645E-2],"split_indices":[2,2,2,2,0,0,2,2,2,0,1,2,0,0,0,0,0,0,0,0,0,0,0],"split_type":[0,0,0,0,0,0,0,0,0,0,0,0,0,0,0,0,0,0,0,0,0,0,0],"sum_hessian":[1.281316E2,4.1218464E1,8.691315E1,2.1448523E1,1.9769943E1,4.2897043E0,8.262344E1,1.5666747E1,5.7817755E0,1.67858E0,1.8091362E1,7.217894E1,1.0444498E1,2.9841423E0,1.2682605E1,1.4920712E0,4.2897043E0,6.3413024E0,1.175006E1,6.91948E1,2.9841423E0,2.4246156E0,8.019882E0],"tree_param":{"num_deleted":"0","num_feature":"3","num_nodes":"23","size_leaf_vector":"1"}},{"base_weights":[-1.2804595E-1,-5.4434866E-1,7.026306E-2,-1.8959181E-1,-9.0660745E-1,8.133674E-2,-3.263023E-2,-5.113769E-1,6.1178225E-1,-4.205031E-3,-9.759547E-1,1.0495104E-1,-9.301729E-1,2.4301872E-2,-3.8603775E-2,9.471117E-2,-6.4078583E-3,-2.9283468E-2,-5.625829E-2,6.651171E-4,8.216326E-2,-1.7356465E-2,-5.2494526E-2],"categories":[],"categories_nodes":[],"categories_segments":[],"categories_sizes":[],"default_left":[0,0,0,0,0,0,0,0,0,0,0,0,0,0,0,0,0,0,0,0,0,0,0],"id":1,"left_children":[1,3,5,7,9,-1,11,13,15,-1,17,19,21,-1,-1,-1,-1,-1,-1,-1,-1,-1,-1],"loss_changes":[1.0658035E1,5.176835E0,1.4148991E1,6.061311E0,1.0773907E0,0E0,1.0413475E1,4.652681E0,6.7353067E0,0E0,4.272728E-1,1.031716E1,4.1765594E-1,0E0,0E0,0E0,0E0,0E0,0E0,0E0,0E0,0E0,0E0],"parents":[2147483647,0,0,1,1,2,2,3,3,4,4,6,6,7,7,8,8,10,10,11,11,12,12],"right_children":[2,4,6,8,10,-1,12,14,16,-1,18,20,22,-1,-1,-1,-1,-1,-1,-1,-1,-1,-1],"split_conditions":[-2.400851E-2,-1.292266E-1,-1.0709303E-3,-1.3874176E-1,1.6581293E1,8.133674E-2,1.5824535E-1,-2.2233126E-1,-1.3408223E-1,-4.205031E-3,-1.9188448E1,1.4240777E-1,2.9268291E1,2.4301872E-2,-3.8603775E-2,9.471117E-2,-6.4078583E-3,-2.9283468E-2,-5.625829E-2,6.651171E-4,8.216326E-2,-1.7356465E-2,-5.2494526E-2],"split_indices":[2,2,2,2,0,0,2,2,2,0,1,2,0,0,0,0,0,0,0,0,0,0,0],"split_type":[0,0,0,0,0,0,0,0,0,0,0,0,0,0,0,0,0,0,0,0,0,0,0],"sum_hessian":[1.27636475E2,4.0619827E1,8.701665E1,2.1292059E1,1.9327768E1,4.477368E0,8.2539276E1,1.5450081E1,5.841977E0,1.6749111E0,1.7652857E1,7.233445E1,1.0204833E1,3.0223637E0,1.2427717E1,1.5666813E0,4.275296E0,6.2444944E0,1.1408362E1,6.921919E1,3.1152499E0,2.4027293E0,7.8021035E0],"tree_param":{"num_deleted":"0","num_feature":"3","num_nodes":"23","size_leaf_vector":"1"}},{"base_weights":[-1.21815525E-1,-5.25501E-1,6.75648E-2,-1.7845297E-1,-8.8522977E-1,7.56219E-2,-3.1007022E-2,-4.9339876E-1,5.889885E-1,-4.0789517E-3,-9.544721E-1,1.00572E-1,-9.0962994E-1,2.3174895E-2,-3.7533015E-2,8.939979E-2,-6.164845E-3,-2.8401224E-2,-5.5215903E-2,-8.471166E-4,5.906691E-2,-1.685204E-2,-5.1458832E-2],"categories":[],"categories_nodes":[],"categories_segments":[],"categories_sizes":[],"default_left":[0,0,0,0,0,0,0,0,0,0,0,0,0,0,0,0,0,0,0,0,0,0,0],"id":2,"left_children":[1,3,5,7,9,-1,11,13,15,-1,17,19,21,-1,-1,-1,-1,-1,-1,-1,-1,-1,-1],"loss_changes":[9.829836E0,4.9635763E0,1.2593037E1,5.640069E0,1.029027E0,0E0,9.738334E0,4.344948E0,6.109703E0,0E0,4.2780113E-1,9.351881E0,4.0391064E-1,0E0,0E0,0E0,0E0,0E0,0E0,0E0,0E0,0E0,0E0],"parents":[2147483647,0,0,1,1,2,2,3,3,4,4,6,6,7,7,8,8,10,10,11,11,12,12],"right_children":[2,4,6,8,10,-1,12,14,16,-1,18,20,22,-1,-1,-1,-1,-1,-1,-1,-1,-1,-1],"split_conditions":[-2.400851E-2,-1.292266E-1,-1.0709303E-3,-1.3874176E-1,1.6581293E1,7.56219E-2,1.5824535E-1,-2.2233126E-1,-1.3408223E-1,-4.0789517E-3,-1.9188448E1,1.2934843E-1,2.9268291E1,2.3174895E-2,-3.7533015E-2,8.939979E-2,-6.164845E-3,-2.8401224E-2,-5.5215903E-2,-8.471166E-4,5.906691E-2,-1.685204E-2,-5.1458832E-2],"split_indices":[2,2,2,2,0,0,2,2,2,0,1,2,0,0,0,0,0,0,0,0,0,0,0],"split_type":[0,0,0,0,0,0,0,0,0,0,0,0,0,0,0,0,0,0,0,0,0,0,0],"sum_hessian":[1.2711406E2,4.0023857E1,8.70902E1,2.1132431E1,1.8891424E1,4.645953E0,8.2444244E1,1.5236642E1,5.8957896E0,1.6713487E0,1.7220076E1,7.247606E1,9.968188E0,3.0585518E0,1.217809E1,1.6343778E0,4.2614117E0,6.1500416E0,1.1070034E1,6.625619E1,6.219872E0,2.381398E0,7.58679E0],"tree_param":{"num_deleted":"0","num_feature":"3","num_nodes":"23","size_leaf_vector":"1"}},{"base_weights":[-1.1611315E-1,-5.0744915E-1,6.46995E-2,-1.6800049E-1,-8.6457074E-1,7.057311E-2,-2.9738374E-2,-3.2867238E-1,6.1438084E-2,-3.9566085E-3,-9.337449E-1,9.608066E-2,-8.8979554E-1,2.2110097E-2,-2.4555478E-2,-2.7543453E-2,-5.4222085E-2,3.727385E-2,-4.116402E-3,-1.6361756E-2,-5.0464775E-2],"categories":[],"categories_nodes":[],"categories_segments":[],"categories_sizes":[],"default_left":[0,0,0,0,0,0,0,0,0,0,0,0,0,0,0,0,0,0,0,0,0],"id":3,"left_children":[1,3,5,7,9,-1,11,13,-1,-1,15,17,19,-1,-1,-1,-1,-1,-1,-1,-1],"loss_changes":[9.060376E0,4.7561197E0,1.1253401E1,5.3344183E0,9.8352337E-1,0E0,9.105293E0,2.783226E0,0E0,0E0,4.2930126E-1,8.590633E0,3.9140224E-1,0E0,0E0,0E0,0E0,0E0,0E0,0E0,0E0],"parents":[2147483647,0,0,1,1,2,2,3,3,4,4,6,6,7,7,10,10,11,11,12,12],"right_children":[2,4,6,8,10,-1,12,14,-1,-1,16,18,20,-1,-1,-1,-1,-1,-1,-1,-1],"split_conditions":[-2.400851E-2,-1.292266E-1,-1.0709303E-3,-1.2928478E-1,1.6581293E1,7.057311E-2,1.5824535E-1,-2.2233126E-1,6.1438084E-2,-3.9566085E-3,-1.9188448E1,-7.2110535E1,2.9268291E1,2.2110097E-2,-2.4555478E-2,-2.7543453E-2,-5.4222085E-2,3.727385E-2,-4.116402E-3,-1.6361756E-2,-5.0464775E-2],"split_indices":[2,2,2,2,0,0,2,2,0,0,1,1,0,0,0,0,0,0,0,0,0],"split_type":[0,0,0,0,0,0,0,0,0,0,0,0,0,0,0,0,0,0,0,0,0],"sum_hessian":[1.26582466E2,3.943219E1,8.7150276E1,2.0970188E1,1.8462004E1,4.796878E0,8.235339E1,1.949261E1,1.4775778E0,1.66789E0,1.6794113E1,7.261825E1,9.735146E0,3.092815E0,1.6399796E1,6.058003E0,1.0736111E1,1.4965672E1,5.765258E1,2.3606188E0,7.374527E0],"tree_param":{"num_deleted":"0","num_feature":"3","num_nodes":"21","size_leaf_vector":"1"}},{"base_weights":[-1.1089431E-1,-4.898139E-1,6.1665986E-2,-1.5807036E-1,-8.445629E-1,2.7668613E-1,-4.831912E-1,-4.6590868E-1,5.701471E-1,-3.8378835E-3,-9.1369766E-1,2.0281707E-1,1.00852266E-1,-5.9450027E-2,-6.256377E-2,2.1103047E-2,-3.5809953E-2,8.590986E-2,-6.1518643E-3,-2.6709137E-2,-5.3271677E-2,6.607697E-2,4.1905236E-3,5.452157E-2,-4.353021E-2],"categories":[],"categories_nodes":[],"categories_segments":[],"categories_sizes":[],"default_left":[0,0,0,0,0,0,0,0,0,0,0,0,0,0,0,0,0,0,0,0,0,0,0,0,0],"id":4,"left_children":[1,3,5,7,9,11,13,15,17,-1,19,21,-1,-1,23,-1,-1,-1,-1,-1,-1,-1,-1,-1,-1],"loss_changes":[8.339949E0,4.559537E0,1.0467825E1,5.1609755E0,9.4057083E-1,7.8038235E0,7.443962E0,3.835879E0,5.7328205E0,0E0,4.3147373E-1,8.196246E0,0E0,0E0,1.6716297E1,0E0,0E0,0E0,0E0,0E0,0E0,0E0,0E0,0E0,0E0],"parents":[2147483647,0,0,1,1,2,2,3,3,4,4,5,5,6,6,7,7,8,8,10,10,11,11,14,14],"right_children":[2,4,6,8,10,12,14,16,18,-1,20,22,-1,-1,24,-1,-1,-1,-1,-1,-1,-1,-1,-1,-1],"split_conditions":[-2.400851E-2,-1.292266E-1,9.588132E-2,-1.3874176E-1,1.6581293E1,9.58383E-2,1.2934843E-1,-2.2233126E-1,-1.3408223E-1,-3.8378835E-3,-1.9188448E1,-1.0709303E-3,1.00852266E-1,-5.9450027E-2,1.5824535E-1,2.1103047E-2,-3.5809953E-2,8.590986E-2,-6.1518643E-3,-2.6709137E-2,-5.3271677E-2,6.607697E-2,4.1905236E-3,5.452157E-2,-4.353021E-2],"split_indices":[2,2,2,2,0,2,2,2,2,0,1,2,0,0,2,0,0,0,0,0,0,0,0,0,0],"split_type":[0,0,0,0,0,0,0,0,0,0,0,0,0,0,0,0,0,0,0,0,0,0,0,0,0],"sum_hessian":[1.26086586E2,3.8877728E1,8.720886E1,2.0837303E1,1.8040424E1,6.2884552E1,2.4324308E1,1.4899195E1,5.938109E0,1.6645318E0,1.6375893E1,6.1395187E1,1.4893641E0,8.400914E0,1.5923394E1,3.1252563E0,1.1773939E1,1.6788691E0,4.2592397E0,5.9684215E0,1.0407471E1,4.9315314E0,5.6463657E1,6.417199E0,9.506196E0],"tree_param":{"num_deleted":"0","num_feature":"3","num_nodes":"25","size_leaf_vector":"1"}},{"base_weights":[-1.0535235E-1,-4.7301707E-1,5.9706505E-2,-1.4860046E-1,-8.251472E-1,2.641093E-1,-4.6779007E-1,-3.0671602E-1,5.8782168E-2,-3.7226786E-3,-8.9426434E-1,1.9299677E-1,9.490552E-2,-5.8404844E-2,-5.9621803E-2,2.0149691E-2,-2.3108017E-2,-2.5897363E-2,-5.2360125E-2,6.204423E-2,3.9762063E-3,5.1085897E-2,-4.2532884E-2],"categories":[],"categories_nodes":[],"categories_segments":[],"categories_sizes":[],"default_left":[0,0,0,0,0,0,0,0,0,0,0,0,0,0,0,0,0,0,0,0,0,0,0],"id":5,"left_children":[1,3,5,7,9,11,13,15,-1,-1,17,19,-1,-1,21,-1,-1,-1,-1,-1,-1,-1,-1],"loss_changes":[7.7045536E0,4.3673706E0,9.632075E0,4.899346E0,8.9991856E-1,7.0933313E0,7.0734577E0,2.4100518E0,0E0,0E0,4.3406296E-1,7.348871E0,0E0,0E0,1.5275064E1,0E0,0E0,0E0,0E0,0E0,0E0,0E0,0E0],"parents":[2147483647,0,0,1,1,2,2,3,3,4,4,5,5,6,6,7,7,10,10,11,11,14,14],"right_children":[2,4,6,8,10,12,14,16,-1,-1,18,20,-1,-1,22,-1,-1,-1,-1,-1,-1,-1,-1],"split_conditions":[-2.400851E-2,-1.292266E-1,9.588132E-2,-1.2928478E-1,1.6581293E1,9.58383E-2,1.2934843E-1,-2.2233126E-1,5.8782168E-2,-3.7226786E-3,-1.9188448E1,-1.0709303E-3,9.490552E-2,-5.8404844E-2,1.5824535E-1,2.0149691E-2,-2.3108017E-2,-2.5897363E-2,-5.2360125E-2,6.204423E-2,3.9762063E-3,5.1085897E-2,-4.2532884E-2],"split_indices":[2,2,2,2,0,2,2,2,0,0,1,2,0,0,2,0,0,0,0,0,0,0,0],"split_type":[0,0,0,0,0,0,0,0,0,0,0,0,0,0,0,0,0,0,0,0,0,0,0],"sum_hessian":[1.2549164E2,3.8304195E1,8.718744E1,2.0676758E1,1.762744E1,6.3197845E1,2.3989597E1,1.91577E1,1.5190579E0,1.6612719E0,1.59661665E1,6.163363E1,1.5642139E0,8.148008E0,1.5841589E1,3.1559753E0,1.6001724E1,5.881323E0,1.0084844E1,5.0512486E0,5.6582382E1,6.569506E0,9.272083E0],"tree_param":{"num_deleted":"0","num_feature":"3","num_nodes":"23","size_leaf_vector":"1"}},{"base_weights":[-1.0015921E-1,-4.5652694E-1,5.7760842E-2,-1.3958758E-1,-8.062718E-1,1.6992326E-1,-8.312428E-1,-4.4018605E-1,5.514512E-1,-3.6108885E-3,-8.753865E-1,1.1680735E0,8.4496E-2,-2.6735535E-1,-9.582526E-1,1.9246368E-2,-3.4169395E-2,8.264193E-2,-6.172217E-3,-2.5107313E-2,-5.148336E-2,7.135237E-2,2.4755457E-2,3.4098007E-2,-4.1595884E-3,-3.501391E-2,1.6692216E-2,-5.253405E-2,-1.5992125E-2],"categories":[],"categories_nodes":[],"categories_segments":[],"categories_sizes":[],"default_left":[0,0,0,0,0,0,0,0,0,0,0,0,0,0,0,0,0,0,0,0,0,0,0,0,0,0,0,0,0],"id":6,"left_children":[1,3,5,7,9,11,13,15,17,-1,19,21,23,25,27,-1,-1,-1,-1,-1,-1,-1,-1,-1,-1,-1,-1,-1,-1],"loss_changes":[7.112114E0,4.1854744E0,8.929234E0,4.719294E0,8.6133957E-1,6.6452093E0,4.6310854E-1,3.3882403E0,5.389841E0,0E0,4.36862E-1,3.6655045E-1,7.463818E0,1.0753201E0,1.24801636E-1,0E0,0E0,0E0,0E0,0E0,0E0,0E0,0E0,0E0,0E0,0E0,0E0,0E0,0E0],"parents":[2147483647,0,0,1,1,2,2,3,3,4,4,5,5,6,6,7,7,8,8,10,10,11,11,12,12,13,13,14,14],"right_children":[2,4,6,8,10,12,14,16,18,-1,20,22,24,26,28,-1,-1,-1,-1,-1,-1,-1,-1,-1,-1,-1,-1,-1,-1],"split_conditions":[-2.400851E-2,-1.292266E-1,1.5824535E-1,-1.3874176E-1,1.6581293E1,-1.0709303E-3,2.9268291E1,-2.2233126E-1,-1.3408223E-1,-3.6108885E-3,-1.9188448E1,-1.4570185E1,-7.2110535E1,-1.01545456E2,4.5600857E1,1.9246368E-2,-3.4169395E-2,8.264193E-2,-6.172217E-3,-2.5107313E-2,-5.148336E-2,7.135237E-2,2.4755457E-2,3.4098007E-2,-4.1595884E-3,-3.501391E-2,1.6692216E-2,-5.253405E-2,-1.5992125E-2],"split_indices":[2,2,2,2,0,2,0,2,2,0,1,1,1,1,0,0,0,0,0,0,0,0,0,0,0,0,0,0,0],"split_type":[0,0,0,0,0,0,0,0,0,0,0,0,0,0,0,0,0,0,0,0,0,0,0,0,0,0,0,0,0],"sum_hessian":[1.24907005E2,3.7774017E1,8.713299E1,2.055036E1,1.7223656E1,7.808957E1,9.043421E0,1.4573826E1,5.9765344E0,1.6581072E0,1.5565548E1,5.157297E0,7.2932274E1,2.2332823E0,6.8101387E0,3.1850665E0,1.1388759E1,1.7202177E0,4.2563167E0,5.796718E0,9.76883E0,2.914994E0,2.2423031E0,1.53114395E1,5.762083E1,1.2025366E0,1.0307456E0,5.384761E0,1.4253778E0],"tree_param":{"num_deleted":"0","num_feature":"3","num_nodes":"29","size_leaf_vector":"1"}},{"base_weights":[-9.561931E-2,-4.4085255E-1,5.5176873E-2,-1.310038E-1,-7.878913E-1,2.4406046E-1,-4.4612294E-1,-2.8652442E-1,5.6306638E-2,-3.5024215E-3,-8.5701275E-1,1.7545433E-1,8.9802675E-2,-5.7441562E-2,-4.1814797E-2,-1.9196128E-2,3.59496E-2,-2.4338257E-2,-5.063777E-2,5.5506796E-2,3.5760847E-3,4.7418814E-2,-4.0747315E-2],"categories":[],"categories_nodes":[],"categories_segments":[],"categories_sizes":[],"default_left":[0,0,0,0,0,0,0,0,0,0,0,0,0,0,0,0,0,0,0,0,0,0,0],"id":7,"left_children":[1,3,5,7,9,11,13,15,-1,-1,17,19,-1,-1,21,-1,-1,-1,-1,-1,-1,-1,-1],"loss_changes":[6.5506244E0,4.0067697E0,8.454575E0,4.505102E0,8.2464314E-1,6.57012E0,6.905543E0,2.2185316E0,0E0,0E0,4.3970203E-1,6.0441074E0,0E0,0E0,1.3460965E1,0E0,0E0,0E0,0E0,0E0,0E0,0E0,0E0],"parents":[2147483647,0,0,1,1,2,2,3,3,4,4,5,5,6,6,7,7,10,10,11,11,14,14],"right_children":[2,4,6,8,10,12,14,16,-1,-1,18,20,-1,-1,22,-1,-1,-1,-1,-1,-1,-1,-1],"split_conditions":[-2.400851E-2,-1.292266E-1,9.588132E-2,-1.2928478E-1,1.6581293E1,9.58383E-2,1.2934843E-1,5.0741264E1,5.6306638E-2,-3.5024215E-3,-1.9188448E1,-1.0709303E-3,8.9802675E-2,-5.7441562E-2,1.5824535E-1,-1.9196128E-2,3.59496E-2,-2.4338257E-2,-5.063777E-2,5.5506796E-2,3.5760847E-3,4.7418814E-2,-4.0747315E-2],"split_indices":[2,2,2,2,0,2,2,0,0,0,1,2,0,0,2,0,0,0,0,0,0,0,0],"split_type":[0,0,0,0,0,0,0,0,0,0,0,0,0,0,0,0,0,0,0,0,0,0,0],"sum_hessian":[1.24361465E2,3.722194E1,8.713952E1,2.0392378E1,1.6829563E1,6.3664623E1,2.34749E1,1.8834448E1,1.5579317E0,1.655035E0,1.5174527E1,6.203539E1,1.6292341E0,7.9010296E0,1.557387E1,1.7734774E1,1.0996737E0,5.7146087E0,9.459919E0,5.2389984E0,5.679639E1,6.7290044E0,8.844866E0],"tree_param":{"num_deleted":"0","num_feature":"3","num_nodes":"23","size_leaf_vector":"1"}},{"base_weights":[-9.0787664E-2,-4.2488605E-1,5.3364817E-2,-1.21884406E-1,-7.699659E-1,2.3319085E-1,-4.3253303E-1,-4.1279507E-1,5.268669E-1,-3.397172E-3,-8.390979E-1,1.6708973E-1,8.498236E-2,-5.650699E-2,-3.999438E-2,1.9244127E-2,-3.2768197E-2,7.8773476E-2,-6.2803985E-3,-2.3589525E-2,-4.982014E-2,5.245478E-2,3.3942943E-3,4.4622768E-2,-3.9819952E-2],"categories":[],"categories_nodes":[],"categories_segments":[],"categories_sizes":[],"default_left":[0,0,0,0,0,0,0,0,0,0,0,0,0,0,0,0,0,0,0,0,0,0,0,0,0],"id":8,"left_children":[1,3,5,7,9,11,13,15,17,-1,19,21,-1,-1,23,-1,-1,-1,-1,-1,-1,-1,-1,-1,-1],"loss_changes":[6.031215E0,3.8497314E0,7.7938194E0,4.231836E0,7.896576E-1,6.0080767E0,6.5632153E0,3.2022185E0,5.003923E0,0E0,4.424429E-1,5.4604235E0,0E0,0E0,1.2333996E1,0E0,0E0,0E0,0E0,0E0,0E0,0E0,0E0,0E0,0E0],"parents":[2147483647,0,0,1,1,2,2,3,3,4,4,5,5,6,6,7,7,8,8,10,10,11,11,14,14],"right_children":[2,4,6,8,10,12,14,16,18,-1,20,22,-1,-1,24,-1,-1,-1,-1,-1,-1,-1,-1,-1,-1],"split_conditions":[-2.400851E-2,-1.292266E-1,9.588132E-2,-1.3874176E-1,1.6581293E1,9.58383E-2,1.2934843E-1,-2.2233126E-1,-1.3408223E-1,-3.397172E-3,-1.9188448E1,-1.0709303E-3,8.498236E-2,-5.650699E-2,1.5824535E-1,1.9244127E-2,-3.2768197E-2,7.8773476E-2,-6.2803985E-3,-2.3589525E-2,-4.982014E-2,5.245478E-2,3.3942943E-3,4.4622768E-2,-3.9819952E-2],"split_indices":[2,2,2,2,0,2,2,2,2,0,1,2,0,0,2,0,0,0,0,0,0,0,0,0,0],"split_type":[0,0,0,0,0,0,0,0,0,0,0,0,0,0,0,0,0,0,0,0,0,0,0,0,0],"sum_hessian":[1.2375919E2,3.6716003E1,8.704319E1,2.0270472E1,1.6445532E1,6.3910587E1,2.31326E1,1.4246029E1,6.0244427E0,1.6520532E0,1.479348E1,6.221994E1,1.6906487E0,7.652959E0,1.5479642E1,3.1851385E0,1.106089E1,1.7681752E0,4.2562675E0,5.634984E0,9.158495E0,5.3225775E0,5.689736E1,6.8524694E0,8.627172E0],"tree_param":{"num_deleted":"0","num_feature":"3","num_nodes":"25","size_leaf_vector":"1"}},{"base_weights":[-8.638226E-2,-4.1022736E-1,5.1573884E-2,-1.1411145E-1,-7.524606E-1,1.4919734E-1,-7.7826947E-1,-2.6694813E-1,5.3999227E-2,-3.2950472E-3,-8.216019E-1,6.5487236E-1,1.3134754E-2,-1.0666288E-2,-9.130634E-1,-5.262878E-3,-4.7077388E-2,-2.2860518E-2,-4.9027573E-2,4.451151E-2,1.9714176E-3,-1.420337E-2,1.7645277E-2,-5.0554406E-2,-1.3705763E-2],"categories":[],"categories_nodes":[],"categories_segments":[],"categories_sizes":[],"default_left":[0,0,0,0,0,0,0,0,0,0,0,0,0,0,0,0,0,0,0,0,0,0,0,0,0],"id":9,"left_children":[1,3,5,7,9,11,13,15,-1,-1,17,19,21,-1,23,-1,-1,-1,-1,-1,-1,-1,-1,-1,-1],"loss_changes":[5.565973E0,3.6827765E0,7.2389264E0,4.142003E0,7.562504E-1,5.461773E0,5.2221584E-1,2.0302587E0,0E0,0E0,4.449606E-1,2.4037075E0,6.529728E0,0E0,1.7986584E-1,0E0,0E0,0E0,0E0,0E0,0E0,0E0,0E0,0E0,0E0],"parents":[2147483647,0,0,1,1,2,2,3,3,4,4,5,5,6,6,7,7,10,10,11,11,12,12,14,14],"right_children":[2,4,6,8,10,12,14,16,-1,-1,18,20,22,-1,24,-1,-1,-1,-1,-1,-1,-1,-1,-1,-1],"split_conditions":[-2.400851E-2,-1.292266E-1,1.5824535E-1,-1.2928478E-1,1.6581293E1,-7.2110535E1,2.9268291E1,-1.3408223E-1,5.3999227E-2,-3.2950472E-3,-1.9188448E1,8.547742E-2,-2.6819577E0,-1.0666288E-2,4.5600857E1,-5.262878E-3,-4.7077388E-2,-2.2860518E-2,-4.9027573E-2,4.451151E-2,1.9714176E-3,-1.420337E-2,1.7645277E-2,-5.0554406E-2,-1.3705763E-2],"split_indices":[2,2,2,2,0,1,0,2,0,0,1,2,1,0,0,0,0,0,0,0,0,0,0,0,0],"split_type":[0,0,0,0,0,0,0,0,0,0,0,0,0,0,0,0,0,0,0,0,0,0,0,0,0],"sum_hessian":[1.2311055E2,3.618783E1,8.692272E1,2.0115988E1,1.6071846E1,7.850727E1,8.415449E0,1.8521763E1,1.5942247E0,1.6491591E0,1.4422687E1,1.5836835E1,6.2670437E1,2.1186101E0,6.2968388E0,1.5873236E1,2.6485276E0,5.557827E0,8.86486E0,1.1132909E1,4.703926E0,3.351679E1,2.9153648E1,4.95434E0,1.3424991E0],"tree_param":{"num_deleted":"0","num_feature":"3","num_nodes":"25","size_leaf_vector":"1"}},{"base_weights":[-8.3294526E-2,-3.966435E-1,4.8522536E-2,-1.08839974E-1,-7.3534495E-1,2.1407445E-1,-4.1190943E-1,-3.9434972E-1,5.1708245E-1,-3.1959673E-3,-8.044897E-1,1.5054117E-1,8.034309E-2,-5.5601515E-2,-2.3626074E-2,1.8621268E-2,-3.1696614E-2,7.52393E-2,-5.7312082E-3,-2.2150679E-2,-4.8257485E-2,4.9979184E-2,2.7422288E-3,4.1705783E-2,-3.814127E-2],"categories":[],"categories_nodes":[],"categories_segments":[],"categories_sizes":[],"default_left":[0,0,0,0,0,0,0,0,0,0,0,0,0,0,0,0,0,0,0,0,0,0,0,0,0],"id":10,"left_children":[1,3,5,7,9,11,13,15,17,-1,19,21,-1,-1,23,-1,-1,-1,-1,-1,-1,-1,-1,-1,-1],"loss_changes":[5.130453E0,3.5023837E0,6.795506E0,3.9642265E0,7.2428703E-1,5.543474E0,6.392889E0,2.9949334E0,4.5550914E0,0E0,4.471674E-1,5.11524E0,0E0,0E0,1.091478E1,0E0,0E0,0E0,0E0,0E0,0E0,0E0,0E0,0E0,0E0],"parents":[2147483647,0,0,1,1,2,2,3,3,4,4,5,5,6,6,7,7,8,8,10,10,11,11,14,14],"right_children":[2,4,6,8,10,12,14,16,18,-1,20,22,-1,-1,24,-1,-1,-1,-1,-1,-1,-1,-1,-1,-1],"split_conditions":[-2.400851E-2,-1.292266E-1,9.588132E-2,-1.3874176E-1,1.6581293E1,9.58383E-2,1.2934843E-1,-2.2233126E-1,-1.3408223E-1,-3.1959673E-3,-1.9188448E1,-1.0709303E-3,8.034309E-2,-5.5601515E-2,1.5824535E-1,1.8621268E-2,-3.1696614E-2,7.52393E-2,-5.7312082E-3,-2.2150679E-2,-4.8257485E-2,4.9979184E-2,2.7422288E-3,4.1705783E-2,-3.814127E-2],"split_indices":[2,2,2,2,0,2,2,2,2,0,1,2,0,0,2,0,0,0,0,0,0,0,0,0,0],"split_type":[0,0,0,0,0,0,0,0,0,0,0,0,0,0,0,0,0,0,0,0,0,0,0,0,0],"sum_hessian":[1.22743835E2,3.5750492E1,8.699334E1,2.0041796E1,1.5708696E1,6.438005E1,2.2613293E1,1.40177E1,6.0240965E0,1.6463503E0,1.4062346E1,6.2631157E1,1.7488917E0,7.4022303E0,1.52110615E1,3.2051768E0,1.0812523E1,1.8107717E0,4.213325E0,5.4831104E0,8.579236E0,5.387415E0,5.7243744E1,6.9815288E0,8.229533E0],"tree_param":{"num_deleted":"0","num_feature":"3","num_nodes":"25","size_leaf_vector":"1"}},{"base_weights":[-7.926695E-2,-3.828804E-1,4.6912E-2,-1.0169362E-1,-7.1859246E-1,1.3595858E-1,-7.4538994E-1,-2.5171432E-1,5.1815458E-2,-3.0998269E-3,-7.877306E-1,8.576829E-2,7.354253E-2,-9.21221E-3,-8.845838E-1,-4.6465313E-3,-4.614921E-2,-2.1459503E-2,-4.750757E-2,1.023777E-2,-2.5113324E-2,-4.9296644E-2,-1.2478854E-2],"categories":[],"categories_nodes":[],"categories_segments":[],"categories_sizes":[],"default_left":[0,0,0,0,0,0,0,0,0,0,0,0,0,0,0,0,0,0,0,0,0,0,0],"id":11,"left_children":[1,3,5,7,9,11,13,15,-1,-1,17,19,-1,-1,21,-1,-1,-1,-1,-1,-1,-1,-1],"loss_changes":[4.7334485E0,3.3484392E0,6.2988305E0,3.8271945E0,6.936674E-1,5.221253E0,5.422931E-1,1.9671942E0,0E0,0E0,4.4898224E-1,5.559231E0,0E0,0E0,2.0261621E-1,0E0,0E0,0E0,0E0,0E0,0E0,0E0,0E0],"parents":[2147483647,0,0,1,1,2,2,3,3,4,4,5,5,6,6,7,7,10,10,11,11,14,14],"right_children":[2,4,6,8,10,12,14,16,-1,-1,18,20,-1,-1,22,-1,-1,-1,-1,-1,-1,-1,-1],"split_conditions":[-2.400851E-2,-1.292266E-1,1.5824535E-1,-1.2928478E-1,1.6581293E1,1.5613541E-1,2.9268291E1,-1.3408223E-1,5.1815458E-2,-3.0998269E-3,-1.9188448E1,9.588132E-2,7.354253E-2,-9.21221E-3,4.5600857E1,-4.6465313E-3,-4.614921E-2,-2.1459503E-2,-4.750757E-2,1.023777E-2,-2.5113324E-2,-4.9296644E-2,-1.2478854E-2],"split_indices":[2,2,2,2,0,2,0,2,0,0,1,2,0,0,0,0,0,0,0,0,0,0,0],"split_type":[0,0,0,0,0,0,0,0,0,0,0,0,0,0,0,0,0,0,0,0,0,0,0],"sum_hessian":[1.2208884E2,3.5245712E1,8.6843124E1,1.9889513E1,1.5356201E1,7.8813675E1,8.029445E0,1.826101E1,1.6285031E0,1.6436238E0,1.3712578E1,7.6983444E1,1.8302312E0,2.0576978E0,5.9717474E0,1.5688464E1,2.5725448E0,5.410802E0,8.301776E0,6.456974E1,1.2413701E1,4.6732483E0,1.2984991E0],"tree_param":{"num_deleted":"0","num_feature":"3","num_nodes":"23","size_leaf_vector":"1"}},{"base_weights":[-7.637929E-2,-3.7016904E-1,4.4319604E-2,-9.7007185E-2,-7.0217997E-1,1.2952939E-1,-7.3061913E-1,-3.769021E-1,5.070508E-1,-3.0065505E-3,-7.712975E-1,8.108744E-2,7.0217356E-2,-8.936633E-3,-8.7024826E-1,1.8001832E-2,-3.066594E-2,-5.918618E-3,7.1591355E-2,-2.0786522E-2,-4.677574E-2,4.685408E-2,1.9108679E-4,-4.8615437E-2,-1.2183579E-2],"categories":[],"categories_nodes":[],"categories_segments":[],"categories_sizes":[],"default_left":[0,0,0,0,0,0,0,0,0,0,0,0,0,0,0,0,0,0,0,0,0,0,0,0,0],"id":12,"left_children":[1,3,5,7,9,11,13,15,17,-1,19,21,-1,-1,23,-1,-1,-1,-1,-1,-1,-1,-1,-1,-1],"loss_changes":[4.3669877E0,3.1817718E0,5.895941E0,3.7111416E0,6.642904E-1,4.826594E0,5.267348E-1,2.7995024E0,4.228948E0,0E0,4.50346E-1,5.1641316E0,0E0,0E0,1.9841862E-1,0E0,0E0,0E0,0E0,0E0,0E0,0E0,0E0,0E0,0E0],"parents":[2147483647,0,0,1,1,2,2,3,3,4,4,5,5,6,6,7,7,8,8,10,10,11,11,14,14],"right_children":[2,4,6,8,10,12,14,16,18,-1,20,22,-1,-1,24,-1,-1,-1,-1,-1,-1,-1,-1,-1,-1],"split_conditions":[-2.400851E-2,-1.292266E-1,1.5824535E-1,-1.3874176E-1,1.6581293E1,1.5613541E-1,2.9268291E1,-2.2233126E-1,-1.1743544E1,-3.0065505E-3,-1.9188448E1,-1.0709303E-3,7.0217356E-2,-8.936633E-3,4.5600857E1,1.8001832E-2,-3.066594E-2,-5.918618E-3,7.1591355E-2,-2.0786522E-2,-4.677574E-2,4.685408E-2,1.9108679E-4,-4.8615437E-2,-1.2183579E-2],"split_indices":[2,2,2,2,0,2,0,2,1,0,1,2,0,0,0,0,0,0,0,0,0,0,0,0,0],"split_type":[0,0,0,0,0,0,0,0,0,0,0,0,0,0,0,0,0,0,0,0,0,0,0,0,0],"sum_hessian":[1.21689514E2,3.4834053E1,8.685546E1,1.9819633E1,1.5014418E1,7.900156E1,7.8539066E0,1.3800921E1,6.018713E0,1.6409781E0,1.337344E1,7.713413E1,1.8674223E0,2.0462239E0,5.8076825E0,3.225079E0,1.0575842E1,4.1106753E0,1.9080377E0,5.3408637E0,8.032576E0,5.464723E0,7.166941E1,4.519707E0,1.2879754E0],"tree_param":{"num_deleted":"0","num_feature":"3","num_nodes":"25","size_leaf_vector":"1"}},{"base_weights":[-7.278758E-2,-3.5715804E-1,4.2611994E-2,-9.0451956E-2,-6.8608755E-1,1.894965E-1,-3.8323435E-1,-2.3602775E-1,4.8925158E-2,-2.9160508E-3,-7.551671E-1,1.2846257E-1,7.592271E-2,-5.4388948E-2,4.70121E-4,-3.924213E-3,-4.543712E-2,-2.0131303E-2,-4.606014E-2,9.64653E-3,-4.9123924E-2,3.8411047E-2,-3.5809435E-2],"categories":[],"categories_nodes":[],"categories_segments":[],"categories_sizes":[],"default_left":[0,0,0,0,0,0,0,0,0,0,0,0,0,0,0,0,0,0,0,0,0,0,0],"id":13,"left_children":[1,3,5,7,9,11,13,15,-1,-1,17,19,-1,-1,21,-1,-1,-1,-1,-1,-1,-1,-1],"loss_changes":[4.023472E0,3.0404081E0,5.563129E0,3.4492793E0,6.360793E-1,5.1530204E0,6.1757092E0,1.9432031E0,0E0,0E0,4.5121193E-1,4.7827115E0,0E0,0E0,9.237059E0,0E0,0E0,0E0,0E0,0E0,0E0,0E0,0E0],"parents":[2147483647,0,0,1,1,2,2,3,3,4,4,5,5,6,6,7,7,10,10,11,11,14,14],"right_children":[2,4,6,8,10,12,14,16,-1,-1,18,20,-1,-1,22,-1,-1,-1,-1,-1,-1,-1,-1],"split_conditions":[-2.400851E-2,-1.292266E-1,9.588132E-2,-1.2928478E-1,1.6581293E1,9.58383E-2,1.2934843E-1,-1.3408223E-1,4.8925158E-2,-2.9160508E-3,-1.9188448E1,8.908723E-2,7.592271E-2,-5.4388948E-2,1.5824535E-1,-3.924213E-3,-4.543712E-2,-2.0131303E-2,-4.606014E-2,9.64653E-3,-4.9123924E-2,3.8411047E-2,-3.5809435E-2],"split_indices":[2,2,2,2,0,2,2,2,0,0,1,2,0,0,2,0,0,0,0,0,0,0,0],"split_type":[0,0,0,0,0,0,0,0,0,0,0,0,0,0,0,0,0,0,0,0,0,0,0],"sum_hessian":[1.2114239E2,3.436481E1,8.677757E1,1.9681467E1,1.4683345E1,6.4934975E1,2.18426E1,1.8008215E1,1.6732535E0,1.6384106E0,1.3044934E1,6.3132217E1,1.8027565E0,7.054478E0,1.4788122E1,1.549589E1,2.5123248E0,5.273253E0,7.771681E0,6.0450596E1,2.6816194E0,7.1048284E0,7.6832933E0],"tree_param":{"num_deleted":"0","num_feature":"3","num_nodes":"23","size_leaf_vector":"1"}},{"base_weights":[-7.031601E-2,-3.4528795E-1,4.016622E-2,-8.633908E-2,-6.702979E-1,1.18082955E-1,-6.996122E-1,-3.6050612E-1,4.960922E-1,-2.828246E-3,-7.393189E-1,5.861841E-1,-9.364957E-3,-7.592737E-3,-8.43785E-1,1.7380958E-2,-2.9677933E-2,7.025953E-2,-5.2984627E-3,-1.9493435E-2,-4.5359105E-2,3.542344E-2,-3.4680795E-2,-1.4622529E-2,1.5468948E-2,-4.747417E-2,-1.1047966E-2],"categories":[],"categories_nodes":[],"categories_segments":[],"categories_sizes":[],"default_left":[0,0,0,0,0,0,0,0,0,0,0,0,0,0,0,0,0,0,0,0,0,0,0,0,0,0,0],"id":14,"left_children":[1,3,5,7,9,11,13,15,17,-1,19,21,23,-1,25,-1,-1,-1,-1,-1,-1,-1,-1,-1,-1,-1,-1],"loss_changes":[3.7101705E0,2.8859572E0,5.137295E0,3.4708195E0,6.089616E-1,4.7896156E0,5.431628E-1,2.615188E0,3.9907455E0,0E0,4.5154238E-1,3.1795793E0,5.8666687E0,0E0,2.1875381E-1,0E0,0E0,0E0,0E0,0E0,0E0,0E0,0E0,0E0,0E0,0E0,0E0],"parents":[2147483647,0,0,1,1,2,2,3,3,4,4,5,5,6,6,7,7,8,8,10,10,11,11,12,12,14,14],"right_children":[2,4,6,8,10,12,14,16,18,-1,20,22,24,-1,26,-1,-1,-1,-1,-1,-1,-1,-1,-1,-1,-1,-1],"split_conditions":[-2.400851E-2,-1.292266E-1,1.5824535E-1,-1.3874176E-1,1.6581293E1,-7.2110535E1,2.9268291E1,-2.2233126E-1,-1.3408223E-1,-2.828246E-3,-1.9188448E1,4.9288258E1,-2.6819577E0,-7.592737E-3,4.5600857E1,1.7380958E-2,-2.9677933E-2,7.025953E-2,-5.2984627E-3,-1.9493435E-2,-4.5359105E-2,3.542344E-2,-3.4680795E-2,-1.4622529E-2,1.5468948E-2,-4.747417E-2,-1.1047966E-2],"split_indices":[2,2,2,2,0,1,0,2,2,0,1,0,1,0,0,0,0,0,0,0,0,0,0,0,0,0,0],"split_type":[0,0,0,0,0,0,0,0,0,0,0,0,0,0,0,0,0,0,0,0,0,0,0,0,0,0,0],"sum_hessian":[1.2067087E2,3.3978565E1,8.66923E1,1.9615631E1,1.4362935E1,7.919184E1,7.5004544E0,1.3596434E1,6.0191975E0,1.6359191E0,1.27270155E1,1.6176836E1,6.3015007E1,1.9906468E0,5.5098076E0,3.2449946E0,1.0351439E1,1.8666443E0,4.152553E0,5.2079244E0,7.5190916E0,1.5173438E1,1.0033971E0,3.3418007E1,2.9597E1,4.2620306E0,1.2477769E0],"tree_param":{"num_deleted":"0","num_feature":"3","num_nodes":"27","size_leaf_vector":"1"}},{"base_weights":[-6.78663E-2,-2.2029575E-2,-6.8574333E-1,-6.693353E-2,1.0184435E0,-7.363789E-3,-8.303519E-1,6.365997E-4,-6.5914017E-1,1.8940194E-2,6.471609E-2,-4.684467E-2,-1.0786539E-2,-1.1172592E-2,1.5114658E-2,-5.3647812E-2,1.08599365E-2],"categories":[],"categories_nodes":[],"categories_segments":[],"categories_sizes":[],"default_left":[0,0,0,0,0,0,0,0,0,0,0,0,0,0,0,0,0],"id":15,"left_children":[1,3,5,7,9,-1,11,13,15,-1,-1,-1,-1,-1,-1,-1,-1],"loss_changes":[3.4187715E0,5.3900237E0,5.2713656E-1,4.4074087E0,3.521695E-1,0E0,2.1428537E-1,6.817326E0,4.3236575E0,0E0,0E0,0E0,0E0,0E0,0E0,0E0,0E0],"parents":[2147483647,0,0,1,1,2,2,3,3,4,4,6,6,7,7,8,8],"right_children":[2,4,6,8,10,-1,12,14,16,-1,-1,-1,-1,-1,-1,-1,-1],"split_conditions":[1.5824535E-1,1.4240777E-1,2.9268291E1,9.588132E-2,1.5613541E-1,-7.363789E-3,4.5600857E1,2.5811957E-2,1.2934843E-1,1.8940194E-2,6.471609E-2,-4.684467E-2,-1.0786539E-2,-1.1172592E-2,1.5114658E-2,-5.3647812E-2,1.08599365E-2],"split_indices":[2,2,0,2,2,0,0,2,2,0,0,0,0,0,0,0,0],"split_type":[0,0,0,0,0,0,0,0,0,0,0,0,0,0,0,0,0],"sum_hessian":[1.202465E2,1.1290629E2,7.340212E0,1.0913212E2,3.7741716E0,1.9812459E0,5.358966E0,9.885212E1,1.0279994E1,1.852388E0,1.9217837E0,4.1203766E0,1.2385894E0,5.6867104E1,4.198502E1,6.8302965E0,3.4496973E0],"tree_param":{"num_deleted":"0","num_feature":"3","num_nodes":"17","size_leaf_vector":"1"}},{"base_weights":[-6.495444E-2,2.7548113E-1,-1.44282E-1,5.7109284E-1,-2.4171807E-1,-3.5384506E-1,1.6327791E-1,7.7202076E-1,-3.9173514E-2,-4.450948E-2,8.071045E-2,-1.1354966E-1,-8.077378E-1,-1.8291512E-1,4.8648253E-1,2.162577E-2,7.4863605E-2,3.558172E-2,-2.304718E-2,-1.856991E-2,4.0048506E-2,-4.7570538E-2,-3.535603E-4,4.834516E-2,-3.0015156E-2,4.5525923E-2,-1.54850455E-2],"categories":[],"categories_nodes":[],"categories_segments":[],"categories_sizes":[],"default_left":[0,0,0,0,0,0,0,0,0,0,0,0,0,0,0,0,0,0,0,0,0,0,0,0,0,0,0],"id":16,"left_children":[1,3,5,7,9,11,13,15,-1,-1,17,19,21,23,25,-1,-1,-1,-1,-1,-1,-1,-1,-1,-1,-1,-1],"loss_changes":[3.3042548E0,3.6832685E0,6.4188614E0,4.701595E0,1.9820321E0,6.344804E0,4.640656E0,2.7039232E0,0E0,0E0,2.7266462E0,9.670706E0,2.3243456E0,1.0355435E1,7.476967E0,0E0,0E0,0E0,0E0,0E0,0E0,0E0,0E0,0E0,0E0,0E0,0E0],"parents":[2147483647,0,0,1,1,2,2,3,3,4,4,5,5,6,6,7,7,10,10,11,11,12,12,13,13,14,14],"right_children":[2,4,6,8,10,12,14,16,-1,-1,18,20,22,24,26,-1,-1,-1,-1,-1,-1,-1,-1,-1,-1,-1,-1],"split_conditions":[-7.2110535E1,8.547742E-2,-3.241346E0,4.9288258E1,1.2934843E-1,5.1193938E-2,4.4433694E-2,-1.0079123E2,-3.9173514E-2,-4.450948E-2,1.5824535E-1,7.145833E-3,1.3886522E-1,3.7120953E1,9.588132E-2,2.162577E-2,7.4863605E-2,3.558172E-2,-2.304718E-2,-1.856991E-2,4.0048506E-2,-4.7570538E-2,-3.535603E-4,4.834516E-2,-3.0015156E-2,4.5525923E-2,-1.54850455E-2],"split_indices":[1,2,1,0,2,2,2,1,0,0,2,2,2,0,2,0,0,0,0,0,0,0,0,0,0,0,0],"split_type":[0,0,0,0,0,0,0,0,0,0,0,0,0,0,0,0,0,0,0,0,0,0,0,0,0,0,0],"sum_hessian":[1.19881165E2,2.2188055E1,9.7693115E1,1.4052162E1,8.135892E0,5.8013668E1,3.9679443E1,1.26115055E1,1.4406571E0,2.1170897E0,6.018802E0,3.8749474E1,1.9264193E1,1.9367964E1,2.0311481E1,9.677589E0,2.9339159E0,2.6353285E0,3.3834734E0,3.0690254E1,8.05922E0,1.6173687E1,3.0905058E0,4.8075614E0,1.4560402E1,1.3159379E1,7.1521025E0],"tree_param":{"num_deleted":"0","num_feature":"3","num_nodes":"27","size_leaf_vector":"1"}},{"base_weights":[-6.179521E-2,-1.807144E-2,-6.653452E-1,-6.0787037E-2,9.5625985E-1,-4.0975098E-2,-1.4286637E-1,-1.9976054E-1,1.9662343E-1,1.7314488E-2,6.1316706E-2,1.817756E-2,-2.9484471E-2,7.4421056E-3,-2.7677266E-2,-5.107583E-3,3.5305716E-2],"categories":[],"categories_nodes":[],"categories_segments":[],"categories_sizes":[],"default_left":[0,0,0,0,0,0,0,0,0,0,0,0,0,0,0,0,0],"id":17,"left_children":[1,3,5,7,9,-1,11,13,15,-1,-1,-1,-1,-1,-1,-1,-1],"loss_changes":[3.1684732E0,4.7780733E0,5.364022E-1,3.959493E0,3.698387E-1,0E0,9.0670574E-1,8.920277E0,5.9973974E0,0E0,0E0,0E0,0E0,0E0,0E0,0E0,0E0],"parents":[2147483647,0,0,1,1,2,2,3,3,4,4,6,6,7,7,8,8],"right_children":[2,4,6,8,10,-1,12,14,16,-1,-1,-1,-1,-1,-1,-1,-1],"split_conditions":[1.5824535E-1,1.4240777E-1,2.4491031E-1,-3.241346E0,1.5613541E-1,-4.0975098E-2,-1.7302654E1,-2.7150124E1,7.433118E-2,1.7314488E-2,6.1316706E-2,1.817756E-2,-2.9484471E-2,7.4421056E-3,-2.7677266E-2,-5.107583E-3,3.5305716E-2],"split_indices":[2,2,2,1,2,0,1,1,2,0,0,0,0,0,0,0,0],"split_type":[0,0,0,0,0,0,0,0,0,0,0,0,0,0,0,0,0],"sum_hessian":[1.1952141E2,1.1240803E2,7.113381E0,1.0858516E2,3.8228638E0,5.053781E0,2.0595999E0,7.066029E1,3.792487E1,1.8735659E0,1.9492979E0,1.0527759E0,1.006824E0,3.5882587E1,3.4777706E1,2.4409927E1,1.3514941E1],"tree_param":{"num_deleted":"0","num_feature":"3","num_nodes":"17","size_leaf_vector":"1"}},{"base_weights":[-5.870741E-2,-1.652367E-2,-6.510511E-1,-5.7884652E-2,9.199378E-1,-5.785057E-3,-8.0163294E-1,6.071415E-3,-6.3397187E-1,1.670274E-2,5.8948588E-2,-4.5628693E-2,-9.595185E-3,-1.7519838E-3,7.017133E-2,-5.247399E-2,1.0060648E-2],"categories":[],"categories_nodes":[],"categories_segments":[],"categories_sizes":[],"default_left":[0,0,0,0,0,0,0,0,0,0,0,0,0,0,0,0,0],"id":18,"left_children":[1,3,5,7,9,-1,11,13,15,-1,-1,-1,-1,-1,-1,-1,-1],"loss_changes":[2.9917696E0,4.437817E0,5.491321E-1,4.03286E0,3.4182453E-1,0E0,2.3383307E-1,5.7603025E0,4.006411E0,0E0,0E0,0E0,0E0,0E0,0E0,0E0,0E0],"parents":[2147483647,0,0,1,1,2,2,3,3,4,4,6,6,7,7,8,8],"right_children":[2,4,6,8,10,-1,12,14,16,-1,-1,-1,-1,-1,-1,-1,-1],"split_conditions":[1.5824535E-1,1.4240777E-1,2.9268291E1,9.588132E-2,1.5613541E-1,-5.785057E-3,4.5600857E1,9.58383E-2,1.2934843E-1,1.670274E-2,5.8948588E-2,-4.5628693E-2,-9.595185E-3,-1.7519838E-3,7.017133E-2,-5.247399E-2,1.0060648E-2],"split_indices":[2,2,0,2,2,0,0,2,2,0,0,0,0,0,0,0,0],"split_type":[0,0,0,0,0,0,0,0,0,0,0,0,0,0,0,0,0],"sum_hessian":[1.19162285E2,1.12199875E2,6.962415E0,1.08352425E2,3.847447E0,1.9166576E0,5.045758E0,9.841594E1,9.936482E0,1.8814965E0,1.9659505E0,3.8487806E0,1.196977E0,9.655029E1,1.8656477E0,6.4640217E0,3.4724607E0],"tree_param":{"num_deleted":"0","num_feature":"3","num_nodes":"17","size_leaf_vector":"1"}},{"base_weights":[-5.569894E-2,-3.071224E-1,4.281907E-2,-4.9398467E-2,-6.378172E-1,9.269643E-1,-2.7963962E-2,-3.206866E-1,5.0862885E-1,-1.891689E-3,-7.084547E-1,5.9107345E-2,3.4047928E-1,-8.299008E-1,4.362297E-2,1.7976707E-2,-2.7730424E-2,6.848934E-2,-4.0352503E-3,-1.7994838E-2,-4.4106286E-2,-2.1062102E-2,4.7246423E-2,-5.1040288E-2,-1.5717974E-2,1.852391E-2,-6.8911607E-3],"categories":[],"categories_nodes":[],"categories_segments":[],"categories_sizes":[],"default_left":[0,0,0,0,0,0,0,0,0,0,0,0,0,0,0,0,0,0,0,0,0,0,0,0,0,0,0],"id":19,"left_children":[1,3,5,7,9,11,13,15,17,-1,19,-1,21,23,25,-1,-1,-1,-1,-1,-1,-1,-1,-1,-1,-1,-1],"loss_changes":[2.9800305E0,2.8528829E0,5.4665413E0,3.206586E0,5.978627E-1,5.662966E-1,4.7127857E0,2.4494734E0,3.6444316E0,0E0,4.7735977E-1,0E0,1.9483466E0,3.4105825E-1,4.5427084E0,0E0,0E0,0E0,0E0,0E0,0E0,0E0,0E0,0E0,0E0,0E0,0E0],"parents":[2147483647,0,0,1,1,2,2,3,3,4,4,5,5,6,6,7,7,8,8,10,10,12,12,13,13,14,14],"right_children":[2,4,6,8,10,12,14,16,18,-1,20,-1,22,24,26,-1,-1,-1,-1,-1,-1,-1,-1,-1,-1,-1,-1],"split_conditions":[-2.400851E-2,-1.292266E-1,-1.0709303E-3,-1.3874176E-1,1.6581293E1,-1.4570185E1,7.145833E-3,-2.2233126E-1,-1.3408223E-1,-1.891689E-3,-1.9188448E1,5.9107345E-2,3.1946234E1,-1.9720095E0,5.2760713E-2,1.7976707E-2,-2.7730424E-2,6.848934E-2,-4.0352503E-3,-1.7994838E-2,-4.4106286E-2,-2.1062102E-2,4.7246423E-2,-5.1040288E-2,-1.5717974E-2,1.852391E-2,-6.8911607E-3],"split_indices":[2,2,2,2,0,1,2,2,2,0,1,0,0,1,2,0,0,0,0,0,0,0,0,0,0,0,0],"split_type":[0,0,0,0,0,0,0,0,0,0,0,0,0,0,0,0,0,0,0,0,0,0,0,0,0,0,0],"sum_hessian":[1.1877842E2,3.2843235E1,8.593519E1,1.9104048E1,1.3739185E1,5.4732614E0,8.046193E1,1.3140863E1,5.9631844E0,1.6089162E0,1.2130269E1,3.106124E0,2.3671377E0,5.7258983E0,7.473603E1,3.2252328E0,9.915631E0,1.8847768E0,4.078408E0,5.055721E0,7.0745482E0,1.1814202E0,1.1857175E0,3.4633536E0,2.2625446E0,2.6306313E1,4.8429718E1],"tree_param":{"num_deleted":"0","num_feature":"3","num_nodes":"27","size_leaf_vector":"1"}},{"base_weights":[-5.3060666E-2,-1.2357879E-2,-6.3474286E-1,-5.270535E-2,8.9204484E-1,-5.398992E-3,-7.865758E-1,8.471265E-3,-6.142744E-1,1.6357107E-2,5.6999233E-2,-4.495458E-2,-9.205018E-3,-9.772298E-3,1.3710573E-2,-5.1669944E-2,9.928699E-3],"categories":[],"categories_nodes":[],"categories_segments":[],"categories_sizes":[],"default_left":[0,0,0,0,0,0,0,0,0,0,0,0,0,0,0,0,0],"id":20,"left_children":[1,3,5,7,9,-1,11,13,15,-1,-1,-1,-1,-1,-1,-1,-1],"loss_changes":[2.8179808E0,4.1546593E0,5.3776073E-1,3.7397408E0,3.0821538E-1,0E0,2.3337579E-1,5.4189687E0,3.847948E0,0E0,0E0,0E0,0E0,0E0,0E0,0E0,0E0],"parents":[2147483647,0,0,1,1,2,2,3,3,4,4,6,6,7,7,8,8],"right_children":[2,4,6,8,10,-1,12,14,16,-1,-1,-1,-1,-1,-1,-1,-1],"split_conditions":[1.5824535E-1,1.4240777E-1,2.9268291E1,9.588132E-2,1.5613541E-1,-5.398992E-3,4.5600857E1,2.5811957E-2,1.2934843E-1,1.6357107E-2,5.6999233E-2,-4.495458E-2,-9.205018E-3,-9.772298E-3,1.3710573E-2,-5.1669944E-2,9.928699E-3],"split_indices":[2,2,0,2,2,0,0,2,2,0,0,0,0,0,0,0,0],"split_type":[0,0,0,0,0,0,0,0,0,0,0,0,0,0,0,0,0],"sum_hessian":[1.1835354E2,1.115679E2,6.785637E0,1.0770467E2,3.863228E0,1.9011251E0,4.884512E0,9.801226E1,9.692416E0,1.8858876E0,1.9773403E0,3.7009995E0,1.1835123E0,5.560668E1,4.2405575E1,6.215976E0,3.47644E0],"tree_param":{"num_deleted":"0","num_feature":"3","num_nodes":"17","size_leaf_vector":"1"}},{"base_weights":[-5.085256E-2,2.5913543E-1,-1.2420036E-1,5.251543E-1,-2.3114696E-1,-3.1926963E-1,1.5443009E-1,7.13678E-1,-3.8690966E-2,-4.318634E-2,8.32073E-2,-8.466373E-2,-7.7372307E-1,2.4239472E-1,-4.51143E-2,1.9747728E-2,6.953999E-2,3.0123591E-2,-2.0068044E-2,-1.6506454E-2,3.6833387E-2,-4.5879524E-2,8.758511E-4,-2.7558624E-3,3.5849504E-2],"categories":[],"categories_nodes":[],"categories_segments":[],"categories_sizes":[],"default_left":[0,0,0,0,0,0,0,0,0,0,0,0,0,0,0,0,0,0,0,0,0,0,0,0,0],"id":21,"left_children":[1,3,5,7,9,11,13,15,-1,-1,17,19,21,23,-1,-1,-1,-1,-1,-1,-1,-1,-1,-1,-1],"loss_changes":[2.7382677E0,3.1337762E0,5.317136E0,4.293757E0,1.8254379E0,6.0473557E0,3.9912956E0,2.4423823E0,0E0,0E0,1.9535884E0,8.093132E0,2.2242174E0,5.4410486E0,0E0,0E0,0E0,0E0,0E0,0E0,0E0,0E0,0E0,0E0,0E0],"parents":[2147483647,0,0,1,1,2,2,3,3,4,4,5,5,6,6,7,7,10,10,11,11,12,12,13,13],"right_children":[2,4,6,8,10,12,14,16,-1,-1,18,20,22,24,-1,-1,-1,-1,-1,-1,-1,-1,-1,-1,-1],"split_conditions":[-7.2110535E1,8.547742E-2,-3.241346E0,4.9288258E1,1.2934843E-1,5.1193938E-2,4.649524E1,-1.0079123E2,-3.8690966E-2,-4.318634E-2,1.5824535E-1,7.145833E-3,1.3886522E-1,7.433118E-2,-4.51143E-2,1.9747728E-2,6.953999E-2,3.0123591E-2,-2.0068044E-2,-1.6506454E-2,3.6833387E-2,-4.5879524E-2,8.758511E-4,-2.7558624E-3,3.5849504E-2],"split_indices":[1,2,1,0,2,2,1,1,0,0,2,2,2,2,0,0,0,0,0,0,0,0,0,0,0],"split_type":[0,0,0,0,0,0,0,0,0,0,0,0,0,0,0,0,0,0,0,0,0,0,0,0,0],"sum_hessian":[1.1801704E2,2.209682E1,9.592022E1,1.4278451E1,7.81837E0,5.6334538E1,3.9585682E1,1.2862293E1,1.4161577E0,2.0153096E0,5.80306E0,3.793656E1,1.8397978E1,3.725506E1,2.330622E0,9.822225E0,3.0400689E0,2.6837883E0,3.1192718E0,2.9667969E1,8.268594E0,1.5432307E1,2.9656696E0,2.3443058E1,1.3812001E1],"tree_param":{"num_deleted":"0","num_feature":"3","num_nodes":"25","size_leaf_vector":"1"}},{"base_weights":[-4.8813038E-2,-1.0006803E-2,-6.1570674E-1,-4.828751E-2,8.390502E-1,-3.889614E-2,-4.8701307E-3,1.0216846E-2,-5.977334E-1,1.498036E-2,5.410252E-2,-1.473701E-3,6.667091E-2,-5.0779995E-2,8.851278E-3],"categories":[],"categories_nodes":[],"categories_segments":[],"categories_sizes":[],"default_left":[0,0,0,0,0,0,0,0,0,0,0,0,0,0,0],"id":22,"left_children":[1,3,5,7,9,-1,-1,11,13,-1,-1,-1,-1,-1,-1],"loss_changes":[2.604985E0,3.6842349E0,5.62207E-1,3.4846768E0,3.1691742E-1,0E0,0E0,5.2273626E0,3.5566401E0,0E0,0E0,0E0,0E0,0E0,0E0],"parents":[2147483647,0,0,1,1,2,2,3,3,4,4,7,7,8,8],"right_children":[2,4,6,8,10,-1,-1,12,14,-1,-1,-1,-1,-1,-1],"split_conditions":[1.5824535E-1,1.4240777E-1,2.4491031E-1,9.588132E-2,1.5613541E-1,-3.889614E-2,-4.8701307E-3,9.58383E-2,1.2934843E-1,1.498036E-2,5.410252E-2,-1.473701E-3,6.667091E-2,-5.0779995E-2,8.851278E-3],"split_indices":[2,2,2,2,2,0,0,2,2,0,0,0,0,0,0],"split_type":[0,0,0,0,0,0,0,0,0,0,0,0,0,0,0],"sum_hessian":[1.1769382E2,1.1110581E2,6.588003E0,1.0721503E2,3.8907845E0,4.636116E0,1.951887E0,9.7784454E1,9.43057E0,1.9018239E0,1.9889607E0,9.588598E1,1.8984791E0,5.9243894E0,3.5061805E0],"tree_param":{"num_deleted":"0","num_feature":"3","num_nodes":"15","size_leaf_vector":"1"}},{"base_weights":[-4.61799E-2,2.5026736E-1,-1.16669536E-1,4.9911022E-1,-2.2233336E-1,-3.041482E-1,1.4778903E-1,6.7780316E-1,-3.7992295E-2,-4.211883E-2,8.2605824E-2,-7.890209E-2,-7.508497E-1,2.3145877E-1,-4.4221852E-2,-1.031875E-2,4.2224284E-2,2.7701935E-2,-1.8667037E-2,-1.578894E-2,3.4719925E-2,-4.4726808E-2,1.1547152E-3,-2.558552E-3,3.3828847E-2],"categories":[],"categories_nodes":[],"categories_segments":[],"categories_sizes":[],"default_left":[0,0,0,0,0,0,0,0,0,0,0,0,0,0,0,0,0,0,0,0,0,0,0,0,0],"id":23,"left_children":[1,3,5,7,9,11,13,15,-1,-1,17,19,21,23,-1,-1,-1,-1,-1,-1,-1,-1,-1,-1,-1],"loss_changes":[2.501862E0,2.8216496E0,4.818542E0,3.9811463E0,1.7035915E0,5.6424456E0,3.7123077E0,2.2406178E0,0E0,0E0,1.6478024E0,7.324478E0,2.12E0,4.8605175E0,0E0,0E0,0E0,0E0,0E0,0E0,0E0,0E0,0E0,0E0,0E0],"parents":[2147483647,0,0,1,1,2,2,3,3,4,4,5,5,6,6,7,7,10,10,11,11,12,12,13,13],"right_children":[2,4,6,8,10,12,14,16,-1,-1,18,20,22,24,-1,-1,-1,-1,-1,-1,-1,-1,-1,-1,-1],"split_conditions":[-7.2110535E1,8.547742E-2,-3.241346E0,4.9288258E1,1.2934843E-1,5.1193938E-2,4.649524E1,-2.400851E-2,-3.7992295E-2,-4.211883E-2,1.5824535E-1,7.145833E-3,1.3886522E-1,7.433118E-2,-4.4221852E-2,-1.031875E-2,4.2224284E-2,2.7701935E-2,-1.8667037E-2,-1.578894E-2,3.4719925E-2,-4.4726808E-2,1.1547152E-3,-2.558552E-3,3.3828847E-2],"split_indices":[1,2,1,0,2,2,1,2,0,0,2,2,2,2,0,0,0,0,0,0,0,0,0,0,0],"split_type":[0,0,0,0,0,0,0,0,0,0,0,0,0,0,0,0,0,0,0,0,0,0,0,0,0],"sum_hessian":[1.173293E2,2.2049355E1,9.5279945E1,1.4407269E1,7.6420865E0,5.566682E1,3.961313E1,1.3020752E1,1.3865163E0,1.9383444E0,5.703742E0,3.7788742E1,1.7878078E1,3.7360542E1,2.2525873E0,2.0275187E0,1.0993234E1,2.6984742E0,3.005268E0,2.9380564E1,8.408178E0,1.4947236E1,2.9308412E0,2.3392443E1,1.3968099E1],"tree_param":{"num_deleted":"0","num_feature":"3","num_nodes":"25","size_leaf_vector":"1"}},{"base_weights":[-4.4837363E-2,-7.909509E-3,-5.9597266E-1,-3.6176983E-2,5.148403E-2,-3.4010427E-3,-7.562452E-1,-1.508093E-1,1.7508796E-1,-4.385705E-2,-7.157024E-3,7.744569E-3,-2.4204738E-2,-4.2817947E-3,3.0078107E-2],"categories":[],"categories_nodes":[],"categories_segments":[],"categories_sizes":[],"default_left":[0,0,0,0,0,0,0,0,0,0,0,0,0,0,0],"id":24,"left_children":[1,3,5,7,-1,-1,9,11,13,-1,-1,-1,-1,-1,-1],"loss_changes":[2.397014E0,3.3108091E0,5.74461E-1,2.6810884E0,0E0,0E0,2.8771353E-1,7.369707E0,4.390213E0,0E0,0E0,0E0,0E0,0E0,0E0],"parents":[2147483647,0,0,1,1,2,2,3,3,6,6,7,7,8,8],"right_children":[2,4,6,8,-1,-1,10,12,14,-1,-1,-1,-1,-1,-1],"split_conditions":[1.5824535E-1,1.5613541E-1,2.9268291E1,-3.241346E0,5.148403E-2,-3.4010427E-3,4.5600857E1,-2.7150124E1,7.433118E-2,-4.385705E-2,-7.157024E-3,7.744569E-3,-2.4204738E-2,-4.2817947E-3,3.0078107E-2],"split_indices":[2,2,0,1,0,0,0,1,2,0,0,0,0,0,0],"split_type":[0,0,0,0,0,0,0,0,0,0,0,0,0,0,0],"sum_hessian":[1.17008E2,1.1061105E2,6.396949E0,1.0861709E2,1.9939643E0,1.8214242E0,4.5755243E0,7.059721E1,3.801988E1,3.4621763E0,1.1133481E0,3.710162E1,3.3495594E1,2.4091068E1,1.3928809E1],"tree_param":{"num_deleted":"0","num_feature":"3","num_nodes":"15","size_leaf_vector":"1"}},{"base_weights":[-4.275151E-2,-7.058298E-3,-5.837624E-1,-4.2475615E-2,7.700734E-1,-7.505096E-1,-3.6286272E-3,1.5009968E-2,-5.912375E-1,1.3725727E-2,4.9755912E-2,-1.3718466E-2,-4.2307306E-2,-3.7974676E-3,2.7404785E-2,-5.005436E-2,6.886845E-3],"categories":[],"categories_nodes":[],"categories_segments":[],"categories_sizes":[],"default_left":[0,0,0,0,0,0,0,0,0,0,0,0,0,0,0,0,0],"id":25,"left_children":[1,3,5,7,9,11,-1,13,15,-1,-1,-1,-1,-1,-1,-1,-1],"loss_changes":[2.2684915E0,3.0993342E0,5.653696E-1,3.400311E0,2.7425766E-1,1.2650728E-2,0E0,4.807581E0,3.1909811E0,0E0,0E0,0E0,0E0,0E0,0E0,0E0,0E0],"parents":[2147483647,0,0,1,1,2,2,3,3,4,4,5,5,7,7,8,8],"right_children":[2,4,6,8,10,12,-1,14,16,-1,-1,-1,-1,-1,-1,-1,-1],"split_conditions":[1.5824535E-1,1.4240777E-1,2.4491031E-1,9.588132E-2,1.5613541E-1,2.9268291E1,-3.6286272E-3,8.0672726E-2,1.2934843E-1,1.3725727E-2,4.9755912E-2,-1.3718466E-2,-4.2307306E-2,-3.7974676E-3,2.7404785E-2,-5.005436E-2,6.886845E-3],"split_indices":[2,2,2,2,2,0,0,2,2,0,0,0,0,0,0,0,0],"split_type":[0,0,0,0,0,0,0,0,0,0,0,0,0,0,0,0,0],"sum_hessian":[1.16688416E2,1.1041671E2,6.2717E0,1.0650802E2,3.9086964E0,4.376084E0,1.895616E0,9.728913E1,9.218882E0,1.9139386E0,1.9947578E0,1.3790681E0,2.9970157E0,8.384104E1,1.3448094E1,5.6621704E0,3.5567112E0],"tree_param":{"num_deleted":"0","num_feature":"3","num_nodes":"17","size_leaf_vector":"1"}},{"base_weights":[-4.0934995E-2,-1.7817393E-2,-4.340046E-2,-1.3221225E-1,2.131621E-1,-4.160541E-2,-5.3701814E-2,-1.1571207E-1,5.171687E-1,6.135934E-3,-1.587903E-2,4.7694307E-2,-2.681922E-2,-1.5944153E-2,3.708645E-2],"categories":[],"categories_nodes":[],"categories_segments":[],"categories_sizes":[],"default_left":[0,0,0,0,0,0,0,0,0,0,0,0,0,0,0],"id":26,"left_children":[1,3,-1,5,7,9,-1,11,13,-1,-1,-1,-1,-1,-1],"loss_changes":[2.228893E0,3.072418E0,0E0,6.5832353E0,3.9134054E0,3.2992673E0,0E0,9.209916E0,4.0311604E0,0E0,0E0,0E0,0E0,0E0,0E0],"parents":[2147483647,0,0,1,1,3,3,4,4,5,5,7,7,8,8],"right_children":[2,4,-1,6,8,10,-1,12,14,-1,-1,-1,-1,-1,-1],"split_conditions":[4.649524E1,-3.241346E0,-4.340046E-2,-4.6720424E0,4.4433694E-2,5.2760713E-2,-5.3701814E-2,3.7120953E1,4.344765E1,6.135934E-3,-1.587903E-2,4.7694307E-2,-2.681922E-2,-1.5944153E-2,3.708645E-2],"split_indices":[1,1,0,1,2,2,0,0,0,0,0,0,0,0,0],"split_type":[0,0,0,0,0,0,0,0,0,0,0,0,0,0,0],"sum_hessian":[1.16382965E2,1.1421216E2,2.1708086E0,7.6668785E1,3.754337E1,7.089282E1,5.7759676E0,1.8331614E1,1.9211754E1,4.4782986E1,2.6109837E1,4.8168364E0,1.3514777E1,3.9787164E0,1.5233038E1],"tree_param":{"num_deleted":"0","num_feature":"3","num_nodes":"15","size_leaf_vector":"1"}},{"base_weights":[-3.9660163E-2,-2.603798E-1,4.4571716E-2,-2.2382848E-3,-5.999481E-1,9.3791395E-1,-2.7803207E-2,-1.4982775E-1,4.9213193E-2,-7.879537E-4,-6.7257804E-1,5.8136046E-2,3.7936547E-1,-7.8464854E-1,3.781629E-2,6.391003E-4,-4.320569E-2,-1.6201932E-2,-4.2695396E-2,-1.9144246E-2,4.7970396E-2,-4.9095225E-2,-1.37053E-2,3.4017812E-2,-1.9160513E-3],"categories":[],"categories_nodes":[],"categories_segments":[],"categories_sizes":[],"default_left":[0,0,0,0,0,0,0,0,0,0,0,0,0,0,0,0,0,0,0,0,0,0,0,0,0],"id":27,"left_children":[1,3,5,7,9,11,13,15,-1,-1,17,-1,19,21,23,-1,-1,-1,-1,-1,-1,-1,-1,-1,-1],"loss_changes":[2.190356E0,2.8488698E0,5.565392E0,2.9831798E0,5.850806E-1,3.6874866E-1,4.0139337E0,2.0796323E0,0E0,0E0,5.1095915E-1,0E0,1.8419511E0,3.800776E-1,3.6843073E0,0E0,0E0,0E0,0E0,0E0,0E0,0E0,0E0,0E0,0E0],"parents":[2147483647,0,0,1,1,2,2,3,3,4,4,5,5,6,6,7,7,10,10,12,12,13,13,14,14],"right_children":[2,4,6,8,10,12,14,16,-1,-1,18,-1,20,22,24,-1,-1,-1,-1,-1,-1,-1,-1,-1,-1],"split_conditions":[-2.400851E-2,-1.292266E-1,-1.0709303E-3,-1.2928478E-1,1.6581293E1,-1.4570185E1,7.145833E-3,-1.3408223E-1,4.9213193E-2,-7.879537E-4,-1.9188448E1,5.8136046E-2,3.1946234E1,-1.9720095E0,2.1161718E1,6.391003E-4,-4.320569E-2,-1.6201932E-2,-4.2695396E-2,-1.9144246E-2,4.7970396E-2,-4.9095225E-2,-1.37053E-2,3.4017812E-2,-1.9160513E-3],"split_indices":[2,2,2,2,0,1,2,2,0,0,1,0,0,1,0,0,0,0,0,0,0,0,0,0,0],"split_type":[0,0,0,0,0,0,0,0,0,0,0,0,0,0,0,0,0,0,0,0,0,0,0,0,0],"sum_hessian":[1.1618984E2,3.1515636E1,8.467421E1,1.8476387E1,1.3039249E1,5.4495773E0,7.922463E1,1.6809639E1,1.6667489E0,1.5764298E0,1.146282E1,3.114398E0,2.3351796E0,5.4466176E0,7.3778015E1,1.4492479E1,2.3171592E0,4.8765225E0,6.586297E0,1.155978E0,1.1792017E0,3.2627478E0,2.1838698E0,6.9753714E0,6.680264E1],"tree_param":{"num_deleted":"0","num_feature":"3","num_nodes":"25","size_leaf_vector":"1"}},{"base_weights":[-3.7855472E-2,-1.5435617E-2,-4.263417E-2,-1.2686998E-1,2.084961E-1,-3.9906096E-2,-5.289038E-2,-3.3948544E-2,5.7407486E-1,5.9192395E-3,-1.5364552E-2,5.491131E-2,-1.0431394E-2,4.873796E-2,-6.1056498E-3],"categories":[],"categories_nodes":[],"categories_segments":[],"categories_sizes":[],"default_left":[0,0,0,0,0,0,0,0,0,0,0,0,0,0,0],"id":28,"left_children":[1,3,-1,5,7,9,-1,11,13,-1,-1,-1,-1,-1,-1],"loss_changes":[2.122194E0,2.8905563E0,0E0,6.212666E0,3.433261E0,3.0710235E0,0E0,4.995752E0,4.4187284E0,0E0,0E0,0E0,0E0,0E0,0E0],"parents":[2147483647,0,0,1,1,3,3,4,4,5,5,7,7,8,8],"right_children":[2,4,-1,6,8,10,-1,12,14,-1,-1,-1,-1,-1,-1],"split_conditions":[4.649524E1,-3.241346E0,-4.263417E-2,-4.6720424E0,7.433118E-2,5.2760713E-2,-5.289038E-2,3.1018518E1,9.588132E-2,5.9192395E-3,-1.5364552E-2,5.491131E-2,-1.0431394E-2,4.873796E-2,-6.1056498E-3],"split_indices":[1,1,0,1,2,2,0,0,2,0,0,0,0,0,0],"split_type":[0,0,0,0,0,0,0,0,0,0,0,0,0,0,0],"sum_hessian":[1.1588843E2,1.1377682E2,2.111607E0,7.626084E1,3.7515976E1,7.069931E1,5.5615354E0,2.3102194E1,1.4413781E1,4.475925E1,2.5940058E1,2.3812368E0,2.0720957E1,8.894499E0,5.5192823E0],"tree_param":{"num_deleted":"0","num_feature":"3","num_nodes":"15","size_leaf_vector":"1"}},{"base_weights":[-3.6303762E-2,2.3624799E-1,-1.020322E-1,3.305768E-2,8.119736E-1,-9.009794E-1,-5.1451012E-2,2.0184653E-1,-4.410041E-2,6.944394E-2,-1.1823903E-2,-1.0083553E-2,-5.153204E-2,3.0391592E-1,-1.3010149E-1,1.7335294E-2,-3.4805898E-2,2.7491853E-2,-2.0608937E-2,-2.1297043E-2,6.3288608E-3],"categories":[],"categories_nodes":[],"categories_segments":[],"categories_sizes":[],"default_left":[0,0,0,0,0,0,0,0,0,0,0,0,0,0,0,0,0,0,0,0,0],"id":29,"left_children":[1,3,5,7,9,11,13,15,-1,-1,-1,-1,-1,17,19,-1,-1,-1,-1,-1,-1],"loss_changes":[2.114035E0,2.6601439E0,3.7803392E0,2.9612513E0,3.926969E0,2.978773E-1,2.5582416E0,2.3261693E0,0E0,0E0,0E0,0E0,0E0,3.1552212E0,5.7100034E0,0E0,0E0,0E0,0E0,0E0,0E0],"parents":[2147483647,0,0,1,1,2,2,3,3,4,4,5,5,6,6,7,7,13,13,14,14],"right_children":[2,4,6,8,10,12,14,16,-1,-1,-1,-1,-1,18,20,-1,-1,-1,-1,-1,-1],"split_conditions":[-7.2110535E1,-1.0079123E2,-5.9915882E1,-1.0764478E2,3.1799885E1,1.5942586E1,-2.7150124E1,1.5824535E-1,-4.410041E-2,6.944394E-2,-1.1823903E-2,-1.0083553E-2,-5.153204E-2,5.1193938E-2,-3.241346E0,1.7335294E-2,-3.4805898E-2,2.7491853E-2,-2.0608937E-2,-2.1297043E-2,6.3288608E-3],"split_indices":[1,1,1,1,0,0,1,2,0,0,0,0,0,2,1,0,0,0,0,0,0],"split_type":[0,0,0,0,0,0,0,0,0,0,0,0,0,0,0,0,0,0,0,0,0],"sum_hessian":[1.15662E2,2.1969254E1,9.369275E1,1.7019867E1,4.9493866E0,4.5774717E0,8.911528E1,1.5027401E1,1.9924667E0,2.9832006E0,1.9661863E0,1.1156667E0,3.4618049E0,1.5630003E1,7.3485275E1,1.3468555E1,1.5588454E0,1.180731E1,3.8226926E0,3.3832092E1,3.9653187E1],"tree_param":{"num_deleted":"0","num_feature":"3","num_nodes":"21","size_leaf_vector":"1"}},{"base_weights":[-3.5310052E-2,-2.5175202E-1,4.68077E-2,-3.0550947E-3,-5.8521116E-1,8.98518E-1,-2.294956E-2,-2.689714E-1,5.213159E-1,-1.0167196E-3,-6.5698916E-1,5.488771E-2,3.80289E-1,-7.638783E-1,4.0164612E-2,1.9355884E-2,-2.5346879E-2,6.691478E-2,-2.9132562E-3,-1.5937647E-2,-4.1883998E-2,-1.8458037E-2,4.706702E-2,-4.8088428E-2,-1.3108328E-2,5.9494372E-2,4.7569847E-5],"categories":[],"categories_nodes":[],"categories_segments":[],"categories_sizes":[],"default_left":[0,0,0,0,0,0,0,0,0,0,0,0,0,0,0,0,0,0,0,0,0,0,0,0,0,0,0],"id":30,"left_children":[1,3,5,7,9,11,13,15,17,-1,19,-1,21,23,25,-1,-1,-1,-1,-1,-1,-1,-1,-1,-1,-1,-1],"loss_changes":[2.081692E0,2.6676016E0,5.0867953E0,2.8512928E0,5.4396677E-1,2.5160408E-1,3.7619286E0,2.3133724E0,3.3368587E0,0E0,4.764018E-1,0E0,1.7475053E0,3.7465382E-1,3.3566246E0,0E0,0E0,0E0,0E0,0E0,0E0,0E0,0E0,0E0,0E0,0E0,0E0],"parents":[2147483647,0,0,1,1,2,2,3,3,4,4,5,5,6,6,7,7,8,8,10,10,12,12,13,13,14,14],"right_children":[2,4,6,8,10,12,14,16,18,-1,20,-1,22,24,26,-1,-1,-1,-1,-1,-1,-1,-1,-1,-1,-1,-1],"split_conditions":[-2.400851E-2,-1.292266E-1,-1.0709303E-3,-1.3874176E-1,1.6581293E1,-1.4570185E1,7.145833E-3,-2.2233126E-1,-1.3408223E-1,-1.0167196E-3,-1.9188448E1,5.488771E-2,3.1946234E1,-1.9720095E0,9.1065215E-3,1.9355884E-2,-2.5346879E-2,6.691478E-2,-2.9132562E-3,-1.5937647E-2,-4.1883998E-2,-1.8458037E-2,4.706702E-2,-4.8088428E-2,-1.3108328E-2,5.9494372E-2,4.7569847E-5],"split_indices":[2,2,2,2,0,1,2,2,2,0,1,0,0,1,2,0,0,0,0,0,0,0,0,0,0,0,0],"split_type":[0,0,0,0,0,0,0,0,0,0,0,0,0,0,0,0,0,0,0,0,0,0,0,0,0,0,0],"sum_hessian":[1.1545887E2,3.1188362E1,8.427051E1,1.8442749E1,1.2745612E1,5.480083E0,7.879042E1,1.2560295E1,5.8824544E0,1.5816532E0,1.1163959E1,3.1505542E0,2.3295286E0,5.3131847E0,7.347724E1,3.1762838E0,9.384011E0,1.8979797E0,3.9844747E0,4.849753E0,6.3142056E0,1.1437426E0,1.185786E0,3.1526926E0,2.160492E0,1.4555911E0,7.2021645E1],"tree_param":{"num_deleted":"0","num_feature":"3","num_nodes":"27","size_leaf_vector":"1"}},{"base_weights":[-3.3066303E-2,-1.107379E-2,-4.202342E-2,-1.161185E-1,1.9748944E-1,-3.366703E-2,-5.174461E-2,-9.966064E-2,4.6272376E-1,6.72887E-4,-4.6268538E-2,4.4610374E-2,-2.5420317E-2,-1.6001647E-2,3.349404E-2],"categories":[],"categories_nodes":[],"categories_segments":[],"categories_sizes":[],"default_left":[0,0,0,0,0,0,0,0,0,0,0,0,0,0,0],"id":31,"left_children":[1,3,-1,5,7,9,-1,11,13,-1,-1,-1,-1,-1,-1],"loss_changes":[2.051541E0,2.5203989E0,0E0,5.755951E0,3.0847015E0,3.0035498E0,0E0,8.158914E0,3.5463204E0,0E0,0E0,0E0,0E0,0E0,0E0],"parents":[2147483647,0,0,1,1,3,3,4,4,5,5,7,7,8,8],"right_children":[2,4,-1,6,8,10,-1,12,14,-1,-1,-1,-1,-1,-1],"split_conditions":[4.649524E1,-3.241346E0,-4.202342E-2,-4.6720424E0,4.4433694E-2,4.9288258E1,-5.174461E-2,3.7120953E1,4.344765E1,6.72887E-4,-4.6268538E-2,4.4610374E-2,-2.5420317E-2,-1.6001647E-2,3.349404E-2],"split_indices":[1,1,0,1,2,0,0,0,0,0,0,0,0,0,0],"split_type":[0,0,0,0,0,0,0,0,0,0,0,0,0,0,0],"sum_hessian":[1.1505965E2,1.1299552E2,2.0641258E0,7.5441826E1,3.7553696E1,7.018042E1,5.2614017E0,1.8005661E1,1.9548035E1,6.759316E1,2.587257E0,4.909472E0,1.3096189E1,3.9767468E0,1.5571287E1],"tree_param":{"num_deleted":"0","num_feature":"3","num_nodes":"15","size_leaf_vector":"1"}},{"base_weights":[-3.2480024E-2,-1.1189318E-2,-4.134444E-2,-1.1198354E-1,1.87908E-1,-3.2667022E-2,-5.1010676E-2,-9.4280995E-2,4.3675464E-1,6.395165E-4,-4.547909E-2,4.1975494E-2,-2.4563033E-2,-1.5452697E-2,3.1541836E-2],"categories":[],"categories_nodes":[],"categories_segments":[],"categories_sizes":[],"default_left":[0,0,0,0,0,0,0,0,0,0,0,0,0,0,0],"id":32,"left_children":[1,3,-1,5,7,9,-1,11,13,-1,-1,-1,-1,-1,-1],"loss_changes":[1.9506958E0,2.3061624E0,0E0,5.4576974E0,2.7549164E0,2.8472476E0,0E0,7.430387E0,3.1931853E0,0E0,0E0,0E0,0E0,0E0,0E0],"parents":[2147483647,0,0,1,1,3,3,4,4,5,5,7,7,8,8],"right_children":[2,4,-1,6,8,10,-1,12,14,-1,-1,-1,-1,-1,-1],"split_conditions":[4.649524E1,-3.241346E0,-4.134444E-2,-4.6720424E0,4.4433694E-2,4.9288258E1,-5.1010676E-2,3.7120953E1,4.344765E1,6.395165E-4,-4.547909E-2,4.1975494E-2,-2.4563033E-2,-1.5452697E-2,3.1541836E-2],"split_indices":[1,1,0,1,2,0,0,0,0,0,0,0,0,0,0],"split_type":[0,0,0,0,0,0,0,0,0,0,0,0,0,0,0],"sum_hessian":[1.1488055E2,1.12869644E2,2.0108995E0,7.522439E1,3.764526E1,7.013537E1,5.089016E0,1.7931871E1,1.9713388E1,6.761573E1,2.5196378E0,5.0166855E0,1.2915185E1,3.9483762E0,1.5765012E1],"tree_param":{"num_deleted":"0","num_feature":"3","num_nodes":"15","size_leaf_vector":"1"}},{"base_weights":[-3.1925168E-2,-7.644378E-3,-7.2599924E-1,-4.223547E-2,6.1222505E-2,-1.1632413E-2,-4.215176E-2,2.2561799E-1,-1.1116982E-1,1.47564E-3,3.8822696E-2,-4.412806E-2,-2.9883378E-3],"categories":[],"categories_nodes":[],"categories_segments":[],"categories_sizes":[],"default_left":[0,0,0,0,0,0,0,0,0,0,0,0,0],"id":33,"left_children":[1,3,5,7,-1,-1,-1,9,11,-1,-1,-1,-1],"loss_changes":[1.9441607E0,4.858841E0,2.904272E-2,2.0686784E0,0E0,0E0,0E0,2.459848E0,3.4641485E0,0E0,0E0,0E0,0E0],"parents":[2147483647,0,0,1,1,2,2,3,3,7,7,8,8],"right_children":[2,4,6,8,-1,-1,-1,10,12,-1,-1,-1,-1],"split_conditions":[7.1601295E1,6.604103E1,1.9877472E1,-7.2110535E1,6.1222505E-2,-1.1632413E-2,-4.215176E-2,-1.0079123E2,-5.9915882E1,1.47564E-3,3.8822696E-2,-4.412806E-2,-2.9883378E-3],"split_indices":[0,0,1,1,0,0,0,1,1,0,0,0,0],"split_type":[0,0,0,0,0,0,0,0,0,0,0,0,0],"sum_hessian":[1.1469151E2,1.1179172E2,2.8997955E0,1.0967822E2,2.1134992E0,1.1288979E0,1.7708976E0,2.1983912E1,8.7694305E1,1.6989126E1,4.9947853E0,4.468429E0,8.3225876E1],"tree_param":{"num_deleted":"0","num_feature":"3","num_nodes":"13","size_leaf_vector":"1"}},{"base_weights":[-3.0417334E-2,1.566222E-3,-5.3862315E-1,-3.372171E-2,7.637297E-1,-7.124718E-1,-1.7769972E-3,2.3519736E-2,-5.859228E-1,1.1588793E-2,4.8843376E-2,-1.2246998E-2,-4.0646978E-2,-6.375752E-4,5.9589174E-2,-4.9418103E-2,5.1040025E-3],"categories":[],"categories_nodes":[],"categories_segments":[],"categories_sizes":[],"default_left":[0,0,0,0,0,0,0,0,0,0,0,0,0,0,0,0,0],"id":34,"left_children":[1,3,5,7,9,11,-1,13,15,-1,-1,-1,-1,-1,-1,-1,-1],"loss_changes":[1.8788776E0,2.9760845E0,5.732461E-1,3.3580189E0,3.2874775E-1,3.732252E-2,0E0,4.118097E0,2.8630028E0,0E0,0E0,0E0,0E0,0E0,0E0,0E0,0E0],"parents":[2147483647,0,0,1,1,2,2,3,3,4,4,5,5,7,7,8,8],"right_children":[2,4,6,8,10,12,-1,14,16,-1,-1,-1,-1,-1,-1,-1,-1],"split_conditions":[1.5824535E-1,1.4240777E-1,2.4491031E-1,9.588132E-2,2.9198267E1,2.9268291E1,-1.7769972E-3,9.58383E-2,1.2934843E-1,1.1588793E-2,4.8843376E-2,-1.2246998E-2,-4.0646978E-2,-6.375752E-4,5.9589174E-2,-4.9418103E-2,5.1040025E-3],"split_indices":[2,2,2,2,0,0,0,2,2,0,0,0,0,0,0,0,0],"split_type":[0,0,0,0,0,0,0,0,0,0,0,0,0,0,0,0,0],"sum_hessian":[1.1454126E2,1.0869739E2,5.843872E0,1.04800896E2,3.8964937E0,4.033737E0,1.8101349E0,9.582503E1,8.975864E0,1.711741E0,2.1847527E0,1.3215998E0,2.7121372E0,9.389883E1,1.9262044E0,5.387779E0,3.5880857E0],"tree_param":{"num_deleted":"0","num_feature":"3","num_nodes":"17","size_leaf_vector":"1"}},{"base_weights":[-2.8853677E-2,-2.3499621E-1,4.836674E-2,7.804772E-3,-5.6586134E-1,8.7504387E-1,-1.9987531E-2,-1.3311712E-1,4.5536257E-2,-1.267125E-3,-6.36476E-1,5.24561E-2,3.9179975E-1,-7.3470473E-1,3.941961E-2,1.5110059E-3,-4.2690437E-2,-1.499054E-2,-4.107541E-2,-1.7980354E-2,4.7296274E-2,-4.7058728E-2,-1.13523295E-2,1.6243955E-2,-6.4068413E-3],"categories":[],"categories_nodes":[],"categories_segments":[],"categories_sizes":[],"default_left":[0,0,0,0,0,0,0,0,0,0,0,0,0,0,0,0,0,0,0,0,0,0,0,0,0],"id":35,"left_children":[1,3,5,7,9,11,13,15,-1,-1,17,-1,19,21,23,-1,-1,-1,-1,-1,-1,-1,-1,-1,-1],"loss_changes":[1.8460432E0,2.5413208E0,4.8022537E0,2.5642579E0,4.9454212E-1,1.3483047E-1,3.3911707E0,2.0835168E0,0E0,0E0,4.882698E-1,0E0,1.7202548E0,4.2860103E-1,3.583906E0,0E0,0E0,0E0,0E0,0E0,0E0,0E0,0E0,0E0,0E0],"parents":[2147483647,0,0,1,1,2,2,3,3,4,4,5,5,6,6,7,7,10,10,12,12,13,13,14,14],"right_children":[2,4,6,8,10,12,14,16,-1,-1,18,-1,20,22,24,-1,-1,-1,-1,-1,-1,-1,-1,-1,-1],"split_conditions":[-2.400851E-2,-1.292266E-1,-1.0709303E-3,-1.2928478E-1,1.6581293E1,-1.4570185E1,7.145833E-3,-1.3408223E-1,4.5536257E-2,-1.267125E-3,-1.9188448E1,5.24561E-2,3.1946234E1,-1.9720095E0,5.2760713E-2,1.5110059E-3,-4.2690437E-2,-1.499054E-2,-4.107541E-2,-1.7980354E-2,4.7296274E-2,-4.7058728E-2,-1.13523295E-2,1.6243955E-2,-6.4068413E-3],"split_indices":[2,2,2,2,0,1,2,2,0,0,1,0,0,1,2,0,0,0,0,0,0,0,0,0,0],"split_type":[0,0,0,0,0,0,0,0,0,0,0,0,0,0,0,0,0,0,0,0,0,0,0,0,0],"sum_hessian":[1.14255035E2,3.0579317E1,8.367572E1,1.8199942E1,1.2379375E1,5.4890847E0,7.818664E1,1.6480364E1,1.719577E0,1.5874156E0,1.079196E1,3.1745317E0,2.3145533E0,5.12779E0,7.3058846E1,1.4216427E1,2.2639372E0,4.7569776E0,6.0349827E0,1.1313944E0,1.183159E0,3.0381777E0,2.089612E0,2.6674908E1,4.6383938E1],"tree_param":{"num_deleted":"0","num_feature":"3","num_nodes":"25","size_leaf_vector":"1"}},{"base_weights":[-2.7746785E-2,-4.2563076E-3,-7.0851254E-1,-3.2015953E-2,7.1208835E-2,-1.120431E-2,-4.1242436E-2,2.1396677E-1,-9.526618E-2,1.3431772E-3,3.663415E-2,-4.321377E-2,-2.2785177E-3],"categories":[],"categories_nodes":[],"categories_segments":[],"categories_sizes":[],"default_left":[0,0,0,0,0,0,0,0,0,0,0,0,0],"id":36,"left_children":[1,3,5,7,-1,-1,-1,9,11,-1,-1,-1,-1],"loss_changes":[1.8356527E0,4.4926057E0,3.0953288E-2,1.7471993E0,0E0,0E0,0E0,2.213482E0,3.3610928E0,0E0,0E0,0E0,0E0],"parents":[2147483647,0,0,1,1,2,2,3,3,7,7,8,8],"right_children":[2,4,6,8,-1,-1,-1,10,12,-1,-1,-1,-1],"split_conditions":[7.1601295E1,6.7022095E1,1.9877472E1,-7.2110535E1,7.1208835E-2,-1.120431E-2,-4.1242436E-2,-1.0079123E2,-5.9915882E1,1.3431772E-3,3.663415E-2,-4.321377E-2,-2.2785177E-3],"split_indices":[0,0,1,1,0,0,0,1,1,0,0,0,0],"split_type":[0,0,0,0,0,0,0,0,0,0,0,0,0],"sum_hessian":[1.1397775E2,1.1114871E2,2.829041E0,1.09988815E2,1.1598959E0,1.1144872E0,1.7145538E0,2.2009624E1,8.7979195E1,1.6948143E1,5.0614815E0,4.3454227E0,8.363377E1],"tree_param":{"num_deleted":"0","num_feature":"3","num_nodes":"13","size_leaf_vector":"1"}},{"base_weights":[-2.6340567E-2,-6.062718E-3,-4.0220696E-2,-1.0374699E-1,1.856853E-1,-2.7634399E-2,-5.017845E-2,-2.4076331E-2,4.9152824E-1,8.5878524E-4,-4.5017898E-2,4.8501518E-2,-9.338092E-3,7.794945E-2,1.2160666E-2],"categories":[],"categories_nodes":[],"categories_segments":[],"categories_sizes":[],"default_left":[0,0,0,0,0,0,0,0,0,0,0,0,0,0,0],"id":37,"left_children":[1,3,-1,5,7,9,-1,11,13,-1,-1,-1,-1,-1,-1],"loss_changes":[1.8068404E0,2.1343248E0,0E0,5.1396766E0,2.4797773E0,2.776176E0,0E0,4.0257454E0,3.7815535E0,0E0,0E0,0E0,0E0,0E0,0E0],"parents":[2147483647,0,0,1,1,3,3,4,4,5,5,7,7,8,8],"right_children":[2,4,-1,6,8,10,-1,12,14,-1,-1,-1,-1,-1,-1],"split_conditions":[4.649524E1,-3.241346E0,-4.0220696E-2,-4.6720424E0,7.433118E-2,4.9288258E1,-5.017845E-2,3.1018518E1,7.493256E-2,8.5878524E-4,-4.5017898E-2,4.8501518E-2,-9.338092E-3,7.794945E-2,1.2160666E-2],"split_indices":[1,1,0,1,2,0,0,0,2,0,0,0,0,0,0],"split_type":[0,0,0,0,0,0,0,0,0,0,0,0,0,0,0],"sum_hessian":[1.13828064E2,1.1191907E2,1.9089997E0,7.4450096E1,3.7468975E1,6.95941E1,4.855994E0,2.2772078E1,1.4696896E1,6.712774E1,2.466363E0,2.504635E0,2.0267443E1,1.777495E0,1.2919401E1],"tree_param":{"num_deleted":"0","num_feature":"3","num_nodes":"15","size_leaf_vector":"1"}},{"base_weights":[-2.5202058E-2,-2.3274084E-3,-6.9627905E-1,-2.9125988E-2,6.7838125E-2,-1.0893425E-2,-4.0644884E-2,2.6162633E-1,-8.1956975E-2,2.6398565E-4,5.306855E-2,-8.987629E-3,5.769296E-3],"categories":[],"categories_nodes":[],"categories_segments":[],"categories_sizes":[],"default_left":[0,0,0,0,0,0,0,0,0,0,0,0,0],"id":38,"left_children":[1,3,5,7,-1,-1,-1,9,11,-1,-1,-1,-1],"loss_changes":[1.7580724E0,4.113567E0,3.3524513E-2,1.7214736E0,0E0,0E0,0E0,3.5321357E0,1.842931E0,0E0,0E0,0E0,0E0],"parents":[2147483647,0,0,1,1,2,2,3,3,7,7,8,8],"right_children":[2,4,6,8,-1,-1,-1,10,12,-1,-1,-1,-1],"split_conditions":[7.1601295E1,6.7022095E1,1.9877472E1,2.142647E1,6.7838125E-2,-1.0893425E-2,-4.0644884E-2,1.9513678E1,-1.6158177E0,2.6398565E-4,5.306855E-2,-8.987629E-3,5.769296E-3],"split_indices":[0,0,1,0,0,0,0,0,1,0,0,0,0],"split_type":[0,0,0,0,0,0,0,0,0,0,0,0,0],"sum_hessian":[1.1363312E2,1.1085783E2,2.7752848E0,1.0967384E2,1.1839831E0,1.1060585E0,1.6692262E0,1.6256268E1,9.341758E1,1.3072627E1,3.1836407E0,6.2522804E1,3.0894775E1],"tree_param":{"num_deleted":"0","num_feature":"3","num_nodes":"13","size_leaf_vector":"1"}},{"base_weights":[-2.343751E-2,7.075192E-3,-5.184484E-1,-2.7339036E-2,7.4163526E-1,-6.9435436E-1,-1.1998657E-3,2.7487352E-2,-5.665493E-1,1.1227743E-2,4.74166E-2,-1.1632838E-2,-3.9840847E-2,-3.7552428E-4,5.7224233E-2,-4.865323E-2,5.0996267E-3],"categories":[],"categories_nodes":[],"categories_segments":[],"categories_sizes":[],"default_left":[0,0,0,0,0,0,0,0,0,0,0,0,0,0,0,0,0],"id":39,"left_children":[1,3,5,7,9,11,-1,13,15,-1,-1,-1,-1,-1,-1,-1,-1],"loss_changes":[1.7326695E0,2.770976E0,5.625943E-1,3.1169338E0,3.1131768E-1,4.5306206E-2,0E0,3.7684486E0,2.7432182E0,0E0,0E0,0E0,0E0,0E0,0E0,0E0,0E0],"parents":[2147483647,0,0,1,1,2,2,3,3,4,4,5,5,7,7,8,8],"right_children":[2,4,6,8,10,12,-1,14,16,-1,-1,-1,-1,-1,-1,-1,-1],"split_conditions":[1.5824535E-1,1.4240777E-1,2.4491031E-1,9.588132E-2,2.9198267E1,2.9268291E1,-1.1998657E-3,9.58383E-2,1.2934843E-1,1.1227743E-2,4.74166E-2,-1.1632838E-2,-3.9840847E-2,-3.7552428E-4,5.7224233E-2,-4.865323E-2,5.0996267E-3],"split_indices":[2,2,2,2,0,0,0,2,2,0,0,0,0,0,0,0,0],"split_type":[0,0,0,0,0,0,0,0,0,0,0,0,0,0,0,0,0],"sum_hessian":[1.1347218E2,1.07812294E2,5.6598926E0,1.0390701E2,3.9052744E0,3.8764963E0,1.783396E0,9.517839E1,8.728625E0,1.7111056E0,2.1941688E0,1.2980624E0,2.578434E0,9.3249954E1,1.9284378E0,5.1447763E0,3.5838492E0],"tree_param":{"num_deleted":"0","num_feature":"3","num_nodes":"17","size_leaf_vector":"1"}},{"base_weights":[-2.2206582E-2,-2.6493655E-3,-3.943499E-2,-2.2057007E-1,7.987225E-2,1.3938864E-2,-5.4679745E-1,8.466706E-1,1.39006125E-2,-1.2007263E-2,2.5041638E-2,-4.376599E-2,-1.8297937E-2,5.0289113E-2,1.9471707E-2,-3.501442E-2,3.5861374E-3],"categories":[],"categories_nodes":[],"categories_segments":[],"categories_sizes":[],"default_left":[0,0,0,0,0,0,0,0,0,0,0,0,0,0,0,0,0],"id":40,"left_children":[1,3,-1,5,7,9,11,13,15,-1,-1,-1,-1,-1,-1,-1,-1],"loss_changes":[1.7099117E0,2.0383472E0,0E0,2.3891363E0,4.1484118E0,2.48142E0,4.545927E-1,8.106804E-2,3.2192793E0,0E0,0E0,0E0,0E0,0E0,0E0,0E0,0E0],"parents":[2147483647,0,0,1,1,3,3,4,4,5,5,6,6,7,7,8,8],"right_children":[2,4,-1,6,8,10,12,14,16,-1,-1,-1,-1,-1,-1,-1,-1],"split_conditions":[4.649524E1,-2.400851E-2,-3.943499E-2,-1.292266E-1,-1.0709303E-3,-1.3874176E-1,-1.22656524E-1,-1.4570185E1,7.145833E-3,-1.2007263E-2,2.5041638E-2,-4.376599E-2,-1.8297937E-2,5.0289113E-2,1.9471707E-2,-3.501442E-2,3.5861374E-3],"split_indices":[1,2,0,2,2,2,2,1,2,0,0,0,0,0,0,0,0],"split_type":[0,0,0,0,0,0,0,0,0,0,0,0,0,0,0,0,0],"sum_hessian":[1.1320595E2,1.11367836E2,1.8381144E0,3.0129595E1,8.123824E1,1.808584E1,1.2043755E1,5.4981823E0,7.574006E1,1.2217142E1,5.868698E0,2.912465E0,9.1312895E0,3.188821E0,2.309361E0,4.840585E0,7.0899475E1],"tree_param":{"num_deleted":"0","num_feature":"3","num_nodes":"17","size_leaf_vector":"1"}},{"base_weights":[-2.1649592E-2,2.981309E-4,-6.7699045E-1,-3.137026E-2,5.416472E-2,-1.0415965E-2,-3.9665483E-2,1.2603639E-1,-1.3045932E-1,7.0316583E-4,3.9680235E-2,-1.883295E-2,5.197403E-3],"categories":[],"categories_nodes":[],"categories_segments":[],"categories_sizes":[],"default_left":[0,0,0,0,0,0,0,0,0,0,0,0,0],"id":41,"left_children":[1,3,5,7,-1,-1,-1,9,11,-1,-1,-1,-1],"loss_changes":[1.6393112E0,3.8500576E0,3.608215E-2,1.7177477E0,0E0,0E0,0E0,3.1766968E0,3.9306026E0,0E0,0E0,0E0,0E0],"parents":[2147483647,0,0,1,1,2,2,3,3,7,7,8,8],"right_children":[2,4,6,8,-1,-1,-1,10,12,-1,-1,-1,-1],"split_conditions":[7.1601295E1,6.604103E1,1.9877472E1,-2.7150124E1,5.416472E-2,-1.0415965E-2,-3.9665483E-2,-3.259489E1,-3.241346E0,7.0316583E-4,3.9680235E-2,-1.883295E-2,5.197403E-3],"split_indices":[0,0,1,1,0,0,0,1,1,0,0,0,0],"split_type":[0,0,0,0,0,0,0,0,0,0,0,0,0],"sum_hessian":[1.1295968E2,1.1026634E2,2.693335E0,1.0807705E2,2.1892965E0,1.0904883E0,1.6028467E0,4.164711E1,6.642993E1,3.6539333E1,5.1077776E0,3.2104015E1,3.432592E1],"tree_param":{"num_deleted":"0","num_feature":"3","num_nodes":"13","size_leaf_vector":"1"}},{"base_weights":[-2.0387983E-2,9.109411E-3,-5.052854E-1,-1.7070603E-2,4.6841513E-2,-6.8238026E-1,-8.7121176E-4,4.674659E-1,-5.643419E-2,-1.1362136E-2,-3.926704E-2,4.047965E-2,-2.7222363E-2,-8.822729E-3,6.7179897E-3],"categories":[],"categories_nodes":[],"categories_segments":[],"categories_sizes":[],"default_left":[0,0,0,0,0,0,0,0,0,0,0,0,0,0,0],"id":42,"left_children":[1,3,5,7,-1,9,-1,11,13,-1,-1,-1,-1,-1,-1],"loss_changes":[1.6321261E0,2.6450083E0,5.533854E-1,2.0530093E0,0E0,4.525304E-2,0E0,3.242021E0,2.2944937E0,0E0,0E0,0E0,0E0,0E0,0E0],"parents":[2147483647,0,0,1,1,2,2,3,3,5,5,7,7,8,8],"right_children":[2,4,6,8,-1,10,-1,12,14,-1,-1,-1,-1,-1,-1],"split_conditions":[1.5824535E-1,1.5613541E-1,2.4491031E-1,-1.4410812E2,4.6841513E-2,2.9268291E1,-8.7121176E-4,8.547742E-2,-3.241346E0,-1.1362136E-2,-3.926704E-2,4.047965E-2,-2.7222363E-2,-8.822729E-3,6.7179897E-3],"split_indices":[2,2,2,1,0,0,0,2,1,0,0,0,0,0,0],"split_type":[0,0,0,0,0,0,0,0,0,0,0,0,0,0,0],"sum_hessian":[1.1278727E2,1.0724455E2,5.542712E0,1.0525587E2,1.9886906E0,3.7740164E0,1.7686958E0,7.0913258E0,9.8164536E1,1.2879064E0,2.48611E0,5.448971E0,1.6423546E0,6.0304623E1,3.7859917E1],"tree_param":{"num_deleted":"0","num_feature":"3","num_nodes":"15","size_leaf_vector":"1"}},{"base_weights":[-1.9388722E-2,-4.431183E-4,-3.8758785E-2,-2.0738786E-1,7.709681E-2,2.1798285E-2,-5.3067666E-1,8.212629E-1,1.280698E-2,-1.109869E-2,2.3922203E-2,-3.4423225E-4,-3.0135198E-2,4.854433E-2,1.9167306E-2,-3.399656E-2,3.3871077E-3],"categories":[],"categories_nodes":[],"categories_segments":[],"categories_sizes":[],"default_left":[0,0,0,0,0,0,0,0,0,0,0,0,0,0,0,0,0],"id":43,"left_children":[1,3,-1,5,7,9,11,13,15,-1,-1,-1,-1,-1,-1,-1,-1],"loss_changes":[1.6262499E0,1.8103181E0,0E0,2.2898755E0,3.9159749E0,2.2160995E0,4.7858262E-1,5.440855E-2,2.9596386E0,0E0,0E0,0E0,0E0,0E0,0E0,0E0,0E0],"parents":[2147483647,0,0,1,1,3,3,4,4,5,5,6,6,7,7,8,8],"right_children":[2,4,-1,6,8,10,12,14,16,-1,-1,-1,-1,-1,-1,-1,-1],"split_conditions":[4.649524E1,-2.400851E-2,-3.8758785E-2,-1.292266E-1,-1.0709303E-3,-1.3874176E-1,1.6581293E1,-1.4570185E1,7.145833E-3,-1.109869E-2,2.3922203E-2,-3.4423225E-4,-3.0135198E-2,4.854433E-2,1.9167306E-2,-3.399656E-2,3.3871077E-3],"split_indices":[1,2,0,2,2,2,0,1,2,0,0,0,0,0,0,0,0],"split_type":[0,0,0,0,0,0,0,0,0,0,0,0,0,0,0,0,0],"sum_hessian":[1.1259812E2,1.10820724E2,1.7773995E0,2.974917E1,8.1071556E1,1.795387E1,1.17953E1,5.5106325E0,7.556092E1,1.2040286E1,5.9135847E0,1.5583508E0,1.0236949E1,3.2001684E0,2.3104641E0,4.715905E0,7.084502E1],"tree_param":{"num_deleted":"0","num_feature":"3","num_nodes":"17","size_leaf_vector":"1"}},{"base_weights":[-1.870102E-2,2.7286464E-3,-6.64826E-1,-2.2699254E-2,6.317019E-2,-1.0298409E-2,-3.8957264E-2,2.5934225E-1,-7.430896E-2,5.174035E-4,5.1173E-2,-1.9685738E-3,-2.958479E-2],"categories":[],"categories_nodes":[],"categories_segments":[],"categories_sizes":[],"default_left":[0,0,0,0,0,0,0,0,0,0,0,0,0],"id":44,"left_children":[1,3,5,7,-1,-1,-1,9,11,-1,-1,-1,-1],"loss_changes":[1.5710037E0,3.576911E0,3.0575514E-2,1.6128916E0,0E0,0E0,0E0,3.2538054E0,1.6636453E0,0E0,0E0,0E0,0E0],"parents":[2147483647,0,0,1,1,2,2,3,3,7,7,8,8],"right_children":[2,4,6,8,-1,-1,-1,10,12,-1,-1,-1,-1],"split_conditions":[7.1601295E1,6.7022095E1,1.9877472E1,2.142647E1,6.317019E-2,-1.0298409E-2,-3.8957264E-2,1.9513678E1,1.5824535E-1,5.174035E-4,5.1173E-2,-1.9685738E-3,-2.958479E-2],"split_indices":[0,0,1,0,0,0,0,0,2,0,0,0,0],"split_type":[0,0,0,0,0,0,0,0,0,0,0,0,0],"sum_hessian":[1.1232964E2,1.0968748E2,2.6421666E0,1.084814E2,1.2060828E0,1.0857695E0,1.5563972E0,1.6157473E1,9.232392E1,1.2950867E1,3.2066061E0,8.749197E1,4.8319564E0],"tree_param":{"num_deleted":"0","num_feature":"3","num_nodes":"13","size_leaf_vector":"1"}},{"base_weights":[-1.7528506E-2,6.309088E-4,-3.7928164E-2,-1.9996998E-1,7.5247586E-2,1.979913E-2,-5.154339E-1,7.8750885E-1,1.342594E-2,-7.915803E-3,3.0429123E-2,-4.2726707E-2,-1.6657744E-2,1.722514E-2,4.6200152E-2,-3.318518E-2,3.311687E-3],"categories":[],"categories_nodes":[],"categories_segments":[],"categories_sizes":[],"default_left":[0,0,0,0,0,0,0,0,0,0,0,0,0,0,0,0,0],"id":45,"left_children":[1,3,-1,5,7,9,11,13,15,-1,-1,-1,-1,-1,-1,-1,-1],"loss_changes":[1.523491E0,1.6835537E0,0E0,2.124407E0,3.5990531E0,2.082262E0,4.915552E-1,7.650566E-2,2.7774804E0,0E0,0E0,0E0,0E0,0E0,0E0,0E0,0E0],"parents":[2147483647,0,0,1,1,3,3,4,4,5,5,6,6,7,7,8,8],"right_children":[2,4,-1,6,8,10,12,14,16,-1,-1,-1,-1,-1,-1,-1,-1],"split_conditions":[4.649524E1,-2.400851E-2,-3.7928164E-2,-1.292266E-1,-1.0709303E-3,-3.241346E0,-1.22656524E-1,2.6044895E1,7.145833E-3,-7.915803E-3,3.0429123E-2,-4.2726707E-2,-1.6657744E-2,1.722514E-2,4.6200152E-2,-3.318518E-2,3.311687E-3],"split_indices":[1,2,0,2,2,1,2,0,2,0,0,0,0,0,0,0,0],"split_type":[0,0,0,0,0,0,0,0,0,0,0,0,0,0,0,0,0],"sum_hessian":[1.1217825E2,1.10470276E2,1.707979E0,2.9495108E1,8.097517E1,1.7936686E1,1.1558422E1,5.5295515E0,7.544562E1,1.43321295E1,3.6045568E0,2.751553E0,8.806869E0,2.1324387E0,3.3971126E0,4.621248E0,7.082437E1],"tree_param":{"num_deleted":"0","num_feature":"3","num_nodes":"17","size_leaf_vector":"1"}},{"base_weights":[-1.71088E-2,3.611777E-3,-6.503464E-1,-2.1142697E-2,6.1125156E-2,-9.989524E-3,-3.8193773E-2,2.5283372E-1,-7.1502715E-2,-3.615072E-3,3.8907222E-2,-1.0679315E-2,2.5117924E-3],"categories":[],"categories_nodes":[],"categories_segments":[],"categories_sizes":[],"default_left":[0,0,0,0,0,0,0,0,0,0,0,0,0],"id":46,"left_children":[1,3,5,7,-1,-1,-1,9,11,-1,-1,-1,-1],"loss_changes":[1.4845552E0,3.3563213E0,3.0750394E-2,1.5242801E0,0E0,0E0,0E0,2.9889536E0,1.619261E0,0E0,0E0,0E0,0E0],"parents":[2147483647,0,0,1,1,2,2,3,3,7,7,8,8],"right_children":[2,4,6,8,-1,-1,-1,10,12,-1,-1,-1,-1],"split_conditions":[7.1601295E1,6.7022095E1,1.9877472E1,2.142647E1,6.1125156E-2,-9.989524E-3,-3.8193773E-2,2.5811957E-2,3.4108208E1,-3.615072E-3,3.8907222E-2,-1.0679315E-2,2.5117924E-3],"split_indices":[0,0,1,0,0,0,0,2,0,0,0,0,0],"split_type":[0,0,0,0,0,0,0,0,0,0,0,0,0],"sum_hessian":[1.1196401E2,1.0937924E2,2.5847728E0,1.0816517E2,1.2140733E0,1.0756648E0,1.509108E0,1.6170637E1,9.199453E1,1.05210905E1,5.649546E0,4.210198E1,4.9892555E1],"tree_param":{"num_deleted":"0","num_feature":"3","num_nodes":"13","size_leaf_vector":"1"}},{"base_weights":[-1.5952785E-2,2.1052447E-1,-7.2642E-2,2.9819596E-1,-3.5682097E-2,-8.3182025E-1,-2.6914183E-2,5.5358756E-1,-1.9481634E-1,-6.4567537E-3,-4.867644E-2,2.9583418E-1,-1.0073579E-1,1.4942052E-2,6.453582E-2,-4.0279638E-2,5.2874614E-3,2.6375337E-2,-1.970296E-2,-1.7703576E-2,5.3104977E-3],"categories":[],"categories_nodes":[],"categories_segments":[],"categories_sizes":[],"default_left":[0,0,0,0,0,0,0,0,0,0,0,0,0,0,0,0,0,0,0,0,0],"id":47,"left_children":[1,3,5,7,-1,9,11,13,15,-1,-1,17,19,-1,-1,-1,-1,-1,-1,-1,-1],"loss_changes":[1.4640568E0,2.063964E0,3.1365604E0,2.824128E0,0E0,3.8572E-1,2.0992875E0,2.3317623E0,1.5724392E0,0E0,0E0,2.8327227E0,3.7827725E0,0E0,0E0,0E0,0E0,0E0,0E0,0E0,0E0],"parents":[2147483647,0,0,1,1,2,2,3,3,5,5,6,6,7,7,8,8,11,11,12,12],"right_children":[2,4,6,8,-1,10,12,14,16,-1,-1,18,20,-1,-1,-1,-1,-1,-1,-1,-1],"split_conditions":[-7.2110535E1,4.9288258E1,-5.9915882E1,8.547742E-2,-3.5682097E-2,1.5942586E1,-2.7150124E1,7.0170656E-2,1.2934843E-1,-6.4567537E-3,-4.867644E-2,5.1193938E-2,-3.241346E0,1.4942052E-2,6.453582E-2,-4.0279638E-2,5.2874614E-3,2.6375337E-2,-1.970296E-2,-1.7703576E-2,5.3104977E-3],"split_indices":[1,0,1,2,0,0,1,2,2,0,0,2,1,0,0,0,0,0,0,0,0],"split_type":[0,0,0,0,0,0,0,0,0,0,0,0,0,0,0,0,0,0,0,0,0],"sum_hessian":[1.11842476E2,2.1847313E1,8.999516E1,2.0572983E1,1.2743305E0,4.1361217E0,8.585904E1,1.3471547E1,7.101435E0,1.0148904E0,3.1212313E0,1.5422851E1,7.043619E1,1.1056063E1,2.4154847E0,1.7879343E0,5.313501E0,1.1721906E1,3.7009444E0,3.1348959E1,3.9087234E1],"tree_param":{"num_deleted":"0","num_feature":"3","num_nodes":"21","size_leaf_vector":"1"}},{"base_weights":[-1.5736299E-2,1.9424859E-3,-3.735437E-2,-4.0407483E-2,3.261388E-1,1.12595975E-1,-2.9360622E-1,-4.78914E-1,7.8226656E-1,-3.6752962E-3,4.9350467E-2,-4.3957345E-2,9.6886855E-4,3.9404947E-2,-4.9024973E-2,5.5897433E-2,6.9218007E-4],"categories":[],"categories_nodes":[],"categories_segments":[],"categories_sizes":[],"default_left":[0,0,0,0,0,0,0,0,0,0,0,0,0,0,0,0,0],"id":48,"left_children":[1,3,-1,5,7,9,11,13,15,-1,-1,-1,-1,-1,-1,-1,-1],"loss_changes":[1.458384E0,1.5374714E0,0E0,3.8716056E0,5.125353E0,1.0240747E1,6.907607E0,4.140524E0,2.2126904E0,0E0,0E0,0E0,0E0,0E0,0E0,0E0,0E0],"parents":[2147483647,0,0,1,1,3,3,4,4,5,5,6,6,7,7,8,8],"right_children":[2,4,-1,6,8,10,12,14,16,-1,-1,-1,-1,-1,-1,-1,-1],"split_conditions":[4.649524E1,8.758059E0,-3.735437E-2,5.2760713E-2,5.982551E-2,3.882043E-2,8.260928E-2,1.3128271E1,9.588132E-2,-3.6752962E-3,4.9350467E-2,-4.3957345E-2,9.6886855E-4,3.9404947E-2,-4.9024973E-2,5.5897433E-2,6.9218007E-4],"split_indices":[1,1,0,2,2,2,2,1,2,0,0,0,0,0,0,0,0],"split_type":[0,0,0,0,0,0,0,0,0,0,0,0,0,0,0,0,0],"sum_hessian":[1.1168374E2,1.1002155E2,1.6621825E0,9.808412E1,1.193743E1,6.1485092E1,3.6599033E1,4.299311E0,7.6381197E0,5.1450737E1,1.0034354E1,1.21184635E1,2.448057E1,1.0573109E0,3.242E0,4.9993258E0,2.6387942E0],"tree_param":{"num_deleted":"0","num_feature":"3","num_nodes":"17","size_leaf_vector":"1"}},{"base_weights":[-1.5007813E-2,1.2149181E-2,-4.7569472E-1,-1.3145979E-2,4.502996E-2,-6.5817356E-1,3.9850562E-4,3.2536823E-2,-3.9207992E-1,-1.0503827E-2,-3.8215056E-2,-3.683535E-5,5.418588E-2,-4.7957487E-2,9.250886E-3],"categories":[],"categories_nodes":[],"categories_segments":[],"categories_sizes":[],"default_left":[0,0,0,0,0,0,0,0,0,0,0,0,0,0,0],"id":49,"left_children":[1,3,5,7,-1,9,-1,11,13,-1,-1,-1,-1,-1,-1],"loss_changes":[1.4133364E0,2.4214208E0,5.602032E-1,1.8344786E0,0E0,5.7117343E-2,0E0,3.3178911E0,3.907698E0,0E0,0E0,0E0,0E0,0E0,0E0],"parents":[2147483647,0,0,1,1,2,2,3,3,5,5,7,7,8,8],"right_children":[2,4,6,8,-1,10,-1,12,14,-1,-1,-1,-1,-1,-1],"split_conditions":[1.5824535E-1,1.5613541E-1,2.4491031E-1,9.588132E-2,4.502996E-2,2.9268291E1,3.9850562E-4,9.58383E-2,1.2934843E-1,-1.0503827E-2,-3.8215056E-2,-3.683535E-5,5.418588E-2,-4.7957487E-2,9.250886E-3],"split_indices":[2,2,2,2,0,0,0,2,2,0,0,0,0,0,0],"split_type":[0,0,0,0,0,0,0,0,0,0,0,0,0,0,0],"sum_hessian":[1.1150672E2,1.06218864E2,5.287859E0,1.0423634E2,1.9825212E0,3.5773704E0,1.7104887E0,9.383776E1,1.0398581E1,1.255559E0,2.3218114E0,9.1927246E1,1.9105182E0,4.9109454E0,5.4876347E0],"tree_param":{"num_deleted":"0","num_feature":"3","num_nodes":"15","size_leaf_vector":"1"}},{"base_weights":[-1.4229775E-2,5.7063885E-3,-6.3320327E-1,-1.7907938E-2,5.798023E-2,-9.548278E-3,-3.7369832E-2,2.0077707E-1,-7.527966E-2,1.0260869E-3,3.482529E-2,-4.0837336E-2,-1.4595941E-3],"categories":[],"categories_nodes":[],"categories_segments":[],"categories_sizes":[],"default_left":[0,0,0,0,0,0,0,0,0,0,0,0,0],"id":50,"left_children":[1,3,5,7,-1,-1,-1,9,11,-1,-1,-1,-1],"loss_changes":[1.3888913E0,3.0112305E0,3.4621596E-2,1.3767885E0,0E0,0E0,0E0,2.0255978E0,2.9390302E0,0E0,0E0,0E0,0E0],"parents":[2147483647,0,0,1,1,2,2,3,3,7,7,8,8],"right_children":[2,4,6,8,-1,-1,-1,10,12,-1,-1,-1,-1],"split_conditions":[7.1601295E1,6.7022095E1,1.9877472E1,-7.2110535E1,5.798023E-2,-9.548278E-3,-3.7369832E-2,-1.0079123E2,-5.9915882E1,1.0260869E-3,3.482529E-2,-4.0837336E-2,-1.4595941E-3],"split_indices":[0,0,1,1,0,0,0,1,1,0,0,0,0],"split_type":[0,0,0,0,0,0,0,0,0,0,0,0,0],"sum_hessian":[1.1125956E2,1.0874774E2,2.5118132E0,1.0753161E2,1.2161354E0,1.0639076E0,1.4479055E0,2.182837E1,8.570324E1,1.67714E1,5.056968E0,4.0368147E0,8.166643E1],"tree_param":{"num_deleted":"0","num_feature":"3","num_nodes":"13","size_leaf_vector":"1"}},{"base_weights":[-1.3525955E-2,3.4967933E-3,-3.6613107E-2,-1.8275817E-1,7.214847E-2,3.1513605E-2,-4.9592263E-1,7.642799E-1,1.16213765E-2,-4.9602636E-3,4.0980704E-2,-4.1932713E-2,-1.5755853E-2,2.2645228E-2,5.1632352E-2,-3.1951766E-2,3.0637428E-3],"categories":[],"categories_nodes":[],"categories_segments":[],"categories_sizes":[],"default_left":[0,0,0,0,0,0,0,0,0,0,0,0,0,0,0,0,0],"id":51,"left_children":[1,3,-1,5,7,9,11,13,15,-1,-1,-1,-1,-1,-1,-1,-1],"loss_changes":[1.3745232E0,1.4265823E0,0E0,2.032239E0,3.404684E0,2.016435E0,4.9599218E-1,7.858372E-2,2.492781E0,0E0,0E0,0E0,0E0,0E0,0E0,0E0,0E0],"parents":[2147483647,0,0,1,1,3,3,4,4,5,5,6,6,7,7,8,8],"right_children":[2,4,-1,6,8,10,12,14,16,-1,-1,-1,-1,-1,-1,-1,-1],"split_conditions":[4.649524E1,-2.400851E-2,-3.6613107E-2,-1.292266E-1,-1.0709303E-3,-1.2928478E-1,-1.22656524E-1,-1.23473685E-2,7.145833E-3,-4.9602636E-3,4.0980704E-2,-4.1932713E-2,-1.5755853E-2,2.2645228E-2,5.1632352E-2,-3.1951766E-2,3.0637428E-3],"split_indices":[1,2,0,2,2,2,2,2,2,0,0,0,0,0,0,0,0],"split_type":[0,0,0,0,0,0,0,0,0,0,0,0,0,0,0,0,0],"sum_hessian":[1.11135475E2,1.0953632E2,1.5991541E0,2.9052778E1,8.048354E1,1.7784042E1,1.1268736E1,5.5372815E0,7.4946266E1,1.6003698E1,1.7803444E0,2.6351545E0,8.633581E0,3.8073733E0,1.7299085E0,4.4722476E0,7.0474014E1],"tree_param":{"num_deleted":"0","num_feature":"3","num_nodes":"17","size_leaf_vector":"1"}},{"base_weights":[-1.304077E-2,1.34367375E-2,-4.664243E-1,4.273139E-2,-1.1718091E-2,-6.4776576E-1,3.088394E-4,-4.439309E-2,7.4113035E-1,-1.0326049E-2,-3.7698667E-2,1.9896422E-4,-2.6434198E-2,9.668688E-3,4.435877E-2],"categories":[],"categories_nodes":[],"categories_segments":[],"categories_sizes":[],"default_left":[0,0,0,0,0,0,0,0,0,0,0,0,0,0,0],"id":52,"left_children":[1,3,5,-1,7,9,-1,11,13,-1,-1,-1,-1,-1,-1],"loss_changes":[1.3497641E0,2.268067E0,5.356345E-1,0E0,2.606019E0,5.4823875E-2,0E0,2.3726954E0,1.8103504E-1,0E0,0E0,0E0,0E0,0E0,0E0],"parents":[2147483647,0,0,1,1,2,2,4,4,5,5,7,7,8,8],"right_children":[2,4,6,-1,8,10,-1,12,14,-1,-1,-1,-1,-1,-1],"split_conditions":[1.5824535E-1,-3.5223962E2,2.4491031E-1,4.273139E-2,1.4240777E-1,2.9268291E1,3.088394E-4,9.588132E-2,2.8973347E1,-1.0326049E-2,-3.7698667E-2,1.9896422E-4,-2.6434198E-2,9.668688E-3,4.435877E-2],"split_indices":[2,1,2,0,2,0,0,2,0,0,0,0,0,0,0],"split_type":[0,0,0,0,0,0,0,0,0,0,0,0,0,0,0],"sum_hessian":[1.10916435E2,1.0571317E2,5.2032647E0,2.1120014E0,1.0360117E2,3.4925148E0,1.7107499E0,1.0019362E2,3.4075527E0,1.2488029E0,2.2437117E0,9.199652E1,8.197096E0,1.2065046E0,2.2010481E0],"tree_param":{"num_deleted":"0","num_feature":"3","num_nodes":"15","size_leaf_vector":"1"}},{"base_weights":[-1.2234639E-2,2.4224879E-1,-5.7686724E-2,4.603919E-3,9.5998937E-1,-1.9858277E-1,5.7658717E-2,-4.54268E-1,2.4699926E-1,6.322176E-2,1.437854E-2,7.506953E-3,-5.90407E-1,7.050705E-2,-1.09932525E-2,1.4824246E-2,-4.4463854E-2,-2.3370374E-2,2.1914115E-2,1.6424563E-2,-1.1879219E-2,-3.899315E-2,2.3339025E-4,-8.169702E-3,1.0925047E-2],"categories":[],"categories_nodes":[],"categories_segments":[],"categories_sizes":[],"default_left":[0,0,0,0,0,0,0,0,0,0,0,0,0,0,0,0,0,0,0,0,0,0,0,0,0],"id":53,"left_children":[1,3,5,7,9,11,13,15,17,-1,-1,19,21,-1,23,-1,-1,-1,-1,-1,-1,-1,-1,-1,-1],"loss_changes":[1.3066783E0,2.9171195E0,1.5656253E0,1.6552345E0,5.075977E-1,3.49876E0,4.969876E0,1.9446973E0,1.533855E0,0E0,0E0,2.3866282E0,1.6866202E0,0E0,1.8464744E0,0E0,0E0,0E0,0E0,0E0,0E0,0E0,0E0,0E0,0E0],"parents":[2147483647,0,0,1,1,2,2,3,3,4,4,5,5,6,6,7,7,8,8,11,11,12,12,14,14],"right_children":[2,4,6,8,10,12,14,16,18,-1,-1,20,22,-1,24,-1,-1,-1,-1,-1,-1,-1,-1,-1,-1],"split_conditions":[2.142647E1,1.9513678E1,3.426992E1,-1.22656524E-1,-2.4701113E1,-1.8047487E1,3.4851196E1,1.3922517E1,9.561254E0,6.322176E-2,1.437854E-2,1.3237374E-2,-3.241346E0,7.050705E-2,7.433118E-2,1.4824246E-2,-4.4463854E-2,-2.3370374E-2,2.1914115E-2,1.6424563E-2,-1.1879219E-2,-3.899315E-2,2.3339025E-4,-8.169702E-3,1.0925047E-2],"split_indices":[0,0,0,2,1,1,0,0,0,0,0,2,1,0,2,0,0,0,0,0,0,0,0,0,0],"split_type":[0,0,0,0,0,0,0,0,0,0,0,0,0,0,0,0,0,0,0,0,0,0,0,0,0],"sum_hessian":[1.1075982E2,1.612836E1,9.463146E1,1.287263E1,3.2557306E0,4.22729E1,5.2358566E1,4.147339E0,8.725291E0,1.6350245E0,1.620706E0,2.8344986E1,1.3927911E1,1.5853741E0,5.077319E1,1.638317E0,2.5090218E0,1.5379167E0,7.187374E0,1.2125076E1,1.621991E1,1.0328926E1,3.5989845E0,3.0684488E1,2.0088701E1],"tree_param":{"num_deleted":"0","num_feature":"3","num_nodes":"25","size_leaf_vector":"1"}},{"base_weights":[-1.0987446E-2,8.267676E-3,-6.1705524E-1,-1.4645151E-2,5.5962544E-2,-9.1470955E-3,-3.6550988E-2,7.4119814E-2,-1.4802356E-1,-3.8795487E-3,3.4450166E-2,-1.5265532E-2,3.248336E-2],"categories":[],"categories_nodes":[],"categories_segments":[],"categories_sizes":[],"default_left":[0,0,0,0,0,0,0,0,0,0,0,0,0],"id":54,"left_children":[1,3,5,7,-1,-1,-1,9,11,-1,-1,-1,-1],"loss_changes":[1.3068819E0,2.7936685E0,3.6855698E-2,1.2882516E0,0E0,0E0,0E0,6.158173E0,5.6489387E0,0E0,0E0,0E0,0E0],"parents":[2147483647,0,0,1,1,2,2,3,3,7,7,8,8],"right_children":[2,4,6,8,-1,-1,-1,10,12,-1,-1,-1,-1],"split_conditions":[7.1601295E1,6.7022095E1,1.9877472E1,5.2760713E-2,5.5962544E-2,-9.1470955E-3,-3.6550988E-2,3.742083E-2,1.3128271E1,-3.8795487E-3,3.4450166E-2,-1.5265532E-2,3.248336E-2],"split_indices":[0,0,1,2,0,0,0,2,1,0,0,0,0],"split_type":[0,0,0,0,0,0,0,0,0,0,0,0,0],"sum_hessian":[1.1055017E2,1.08102066E2,2.4481063E0,1.0688451E2,1.2175593E0,1.0507698E0,1.3973365E0,6.444191E1,4.2442593E1,5.238959E1,1.2052321E1,3.5967793E1,6.4748006E0],"tree_param":{"num_deleted":"0","num_feature":"3","num_nodes":"13","size_leaf_vector":"1"}},{"base_weights":[-9.994121E-3,6.7137773E-3,-3.6131363E-2,-6.980389E-2,1.6084719E-1,-7.0464227E-4,-7.540575E-1,-4.25876E-2,4.4430828E-1,2.177607E-3,-4.3840166E-2,1.0205177E-3,-4.940739E-2,1.8591978E-2,-1.8817192E-2,7.004848E-2,1.0513659E-2],"categories":[],"categories_nodes":[],"categories_segments":[],"categories_sizes":[],"default_left":[0,0,0,0,0,0,0,0,0,0,0,0,0,0,0,0,0],"id":55,"left_children":[1,3,-1,5,7,9,11,13,15,-1,-1,-1,-1,-1,-1,-1,-1],"loss_changes":[1.3310903E0,1.3065073E0,0E0,3.5024986E0,2.1373925E0,2.6861818E0,1.2520115E0,3.2244344E0,3.1616213E0,0E0,0E0,0E0,0E0,0E0,0E0,0E0,0E0],"parents":[2147483647,0,0,1,1,3,3,4,4,5,5,6,6,7,7,8,8],"right_children":[2,4,-1,6,8,10,12,14,16,-1,-1,-1,-1,-1,-1,-1,-1],"split_conditions":[4.649524E1,-2.5760977E0,-3.6131363E-2,-4.6720424E0,7.433118E-2,4.9288258E1,-1.292266E-1,4.5851486E1,7.493256E-2,2.177607E-3,-4.3840166E-2,1.0205177E-3,-4.940739E-2,1.8591978E-2,-1.8817192E-2,7.004848E-2,1.0513659E-2],"split_indices":[1,1,0,1,2,0,2,0,2,0,0,0,0,0,0,0,0],"split_type":[0,0,0,0,0,0,0,0,0,0,0,0,0,0,0,0,0],"sum_hessian":[1.1038683E2,1.0882595E2,1.5608783E0,7.308895E1,3.5737003E1,6.729427E1,5.7946725E0,2.1300085E1,1.4436919E1,6.496291E1,2.331362E0,1.5568326E0,4.2378397E0,9.450829E0,1.1849257E1,1.8575779E0,1.2579341E1],"tree_param":{"num_deleted":"0","num_feature":"3","num_nodes":"17","size_leaf_vector":"1"}},{"base_weights":[-9.995156E-3,6.222312E-3,-3.5587434E-2,-1.6991994E-1,7.060212E-2,3.6277726E-2,-4.7716272E-1,7.336905E-1,1.2243166E-2,-6.7228167E-3,2.9183457E-2,-4.1115966E-2,-1.4938997E-2,1.5354986E-2,4.3432858E-2,-3.1023322E-2,2.988149E-3],"categories":[],"categories_nodes":[],"categories_segments":[],"categories_sizes":[],"default_left":[0,0,0,0,0,0,0,0,0,0,0,0,0,0,0,0,0],"id":56,"left_children":[1,3,-1,5,7,9,11,13,15,-1,-1,-1,-1,-1,-1,-1,-1],"loss_changes":[1.2706313E0,1.2564182E0,0E0,1.89677E0,3.1282225E0,1.8244513E0,4.922092E-1,1.0983515E-1,2.307977E0,0E0,0E0,0E0,0E0,0E0,0E0,0E0,0E0],"parents":[2147483647,0,0,1,1,3,3,4,4,5,5,6,6,7,7,8,8],"right_children":[2,4,-1,6,8,10,12,14,16,-1,-1,-1,-1,-1,-1,-1,-1],"split_conditions":[4.649524E1,-2.400851E-2,-3.5587434E-2,-1.292266E-1,-1.0709303E-3,-3.241346E0,-1.22656524E-1,2.6044895E1,7.145833E-3,-6.7228167E-3,2.9183457E-2,-4.1115966E-2,-1.4938997E-2,1.5354986E-2,4.3432858E-2,-3.1023322E-2,2.988149E-3],"split_indices":[1,2,0,2,2,1,2,0,2,0,0,0,0,0,0,0,0],"split_type":[0,0,0,0,0,0,0,0,0,0,0,0,0,0,0,0,0],"sum_hessian":[1.10259094E2,1.0873731E2,1.5217776E0,2.866659E1,8.0070724E1,1.7681831E1,1.0984757E1,5.5409617E0,7.452976E1,1.4053001E1,3.628831E0,2.51281E0,8.471948E0,2.1189482E0,3.4220133E0,4.3642535E0,7.016551E1],"tree_param":{"num_deleted":"0","num_feature":"3","num_nodes":"17","size_leaf_vector":"1"}},{"base_weights":[-9.908613E-3,5.6838983E-1,-2.902324E-2,6.242485E-2,-1.9777626E-2,-3.8261555E-2,-1.2667387E-2,2.864122E-1,-6.0070477E-2,-3.2117527E-3,4.061184E-2,-3.5916276E-2,-1.5748645E-3],"categories":[],"categories_nodes":[],"categories_segments":[],"categories_sizes":[],"default_left":[0,0,0,0,0,0,0,0,0,0,0,0,0],"id":57,"left_children":[1,3,5,-1,-1,-1,7,9,11,-1,-1,-1,-1],"loss_changes":[1.2442147E0,2.8553972E0,1.2963512E0,0E0,0E0,0E0,1.5359231E0,2.7863574E0,1.7320917E0,0E0,0E0,0E0,0E0],"parents":[2147483647,0,0,1,1,2,2,6,6,7,7,8,8],"right_children":[2,4,6,-1,-1,-1,8,10,12,-1,-1,-1,-1],"split_conditions":[-3.5223962E2,8.42413E-2,1.0313253E1,6.242485E-2,-1.9777626E-2,-3.8261555E-2,2.142647E1,2.5811957E-2,2.2789253E1,-3.2117527E-3,4.061184E-2,-3.5916276E-2,-1.5748645E-3],"split_indices":[1,2,0,0,0,0,0,2,0,0,0,0,0],"split_type":[0,0,0,0,0,0,0,0,0,0,0,0,0],"sum_hessian":[1.10065926E2,2.6022093E0,1.0746372E2,1.3526509E0,1.2495584E0,1.3404653E0,1.0612325E2,1.382915E1,9.2294106E1,8.823212E0,5.0059385E0,2.83533E0,8.945877E1],"tree_param":{"num_deleted":"0","num_feature":"3","num_nodes":"13","size_leaf_vector":"1"}},{"base_weights":[-9.4177965E-3,1.5760561E-2,-4.4840053E-1,-8.352504E-3,4.2747404E-2,-6.305512E-1,6.918989E-4,3.468898E-2,-3.720643E-1,-9.423221E-3,-3.706189E-2,1.340127E-4,5.2059203E-2,-4.702772E-2,8.922929E-3],"categories":[],"categories_nodes":[],"categories_segments":[],"categories_sizes":[],"default_left":[0,0,0,0,0,0,0,0,0,0,0,0,0,0,0],"id":58,"left_children":[1,3,5,7,-1,9,-1,11,13,-1,-1,-1,-1,-1,-1],"loss_changes":[1.2340239E0,2.15113E0,5.18587E-1,1.640735E0,0E0,7.391071E-2,0E0,3.0221863E0,3.6381865E0,0E0,0E0,0E0,0E0,0E0,0E0],"parents":[2147483647,0,0,1,1,2,2,3,3,5,5,7,7,8,8],"right_children":[2,4,6,8,-1,10,-1,12,14,-1,-1,-1,-1,-1,-1],"split_conditions":[1.5824535E-1,1.5613541E-1,2.4491031E-1,9.588132E-2,4.2747404E-2,2.9268291E1,6.918989E-4,9.58383E-2,1.2934843E-1,-9.423221E-3,-3.706189E-2,1.340127E-4,5.2059203E-2,-4.702772E-2,8.922929E-3],"split_indices":[2,2,2,2,0,0,0,2,2,0,0,0,0,0,0],"split_type":[0,0,0,0,0,0,0,0,0,0,0,0,0,0,0],"sum_hessian":[1.1000805E2,1.0495248E2,5.0555716E0,1.0298341E2,1.9690603E0,3.3653066E0,1.6902652E0,9.2894905E1,1.0088514E1,1.2150459E0,2.1502607E0,9.1003456E1,1.8914442E0,4.6147156E0,5.4737988E0],"tree_param":{"num_deleted":"0","num_feature":"3","num_nodes":"15","size_leaf_vector":"1"}},{"base_weights":[-8.90978E-3,9.548012E-3,-6.001093E-1,-1.2482144E-2,5.3623497E-2,-8.502605E-3,-3.5851266E-2,7.597069E-2,-1.4594473E-1,-3.3857655E-3,3.2250736E-2,-1.484499E-2,3.0473003E-2],"categories":[],"categories_nodes":[],"categories_segments":[],"categories_sizes":[],"default_left":[0,0,0,0,0,0,0,0,0,0,0,0,0],"id":59,"left_children":[1,3,5,7,-1,-1,-1,9,11,-1,-1,-1,-1],"loss_changes":[1.2145858E0,2.5519576E0,4.7493577E-2,1.2765688E0,0E0,0E0,0E0,5.3687396E0,5.092311E0,0E0,0E0,0E0,0E0],"parents":[2147483647,0,0,1,1,2,2,3,3,7,7,8,8],"right_children":[2,4,6,8,-1,-1,-1,10,12,-1,-1,-1,-1],"split_conditions":[7.1601295E1,6.7022095E1,1.9877472E1,5.2760713E-2,5.3623497E-2,-8.502605E-3,-3.5851266E-2,3.742083E-2,1.3128271E1,-3.3857655E-3,3.2250736E-2,-1.484499E-2,3.0473003E-2],"split_indices":[0,0,1,2,0,0,0,2,1,0,0,0,0],"split_type":[0,0,0,0,0,0,0,0,0,0,0,0,0],"sum_hessian":[1.0977985E2,1.0741025E2,2.369597E0,1.0619746E2,1.2127953E0,1.0311512E0,1.3384458E0,6.4127495E1,4.2069965E1,5.1902817E1,1.2224676E1,3.556905E1,6.5009155E0],"tree_param":{"num_deleted":"0","num_feature":"3","num_nodes":"13","size_leaf_vector":"1"}},{"base_weights":[-8.044638E-3,7.873854E-3,-3.5195094E-2,5.597369E-1,-1.0838609E-2,6.0315397E-2,-1.912333E-2,-9.728295E-2,1.4706752E-1,-1.3387547E-3,-4.813276E-2,5.0105006E-2,4.6164095E-3],"categories":[],"categories_nodes":[],"categories_segments":[],"categories_sizes":[],"default_left":[0,0,0,0,0,0,0,0,0,0,0,0,0],"id":60,"left_children":[1,3,-1,5,7,-1,-1,9,11,-1,-1,-1,-1],"loss_changes":[1.2308445E0,1.1330405E0,0E0,2.6533153E0,1.4685034E0,0E0,0E0,4.2115707E0,1.6900887E0,0E0,0E0,0E0,0E0],"parents":[2147483647,0,0,1,1,3,3,4,4,7,7,8,8],"right_children":[2,4,-1,6,8,-1,-1,10,12,-1,-1,-1,-1],"split_conditions":[4.649524E1,-3.5223962E2,-3.5195094E-2,8.42413E-2,-3.241346E0,6.0315397E-2,-1.912333E-2,-4.6720424E0,2.4990852E1,-1.3387547E-3,-4.813276E-2,5.0105006E-2,4.6164095E-3],"split_indices":[1,1,0,2,1,0,0,1,0,0,0,0,0],"split_type":[0,0,0,0,0,0,0,0,0,0,0,0,0],"sum_hessian":[1.0961681E2,1.0813187E2,1.4849495E0,2.5980594E0,1.05533806E2,1.3745161E0,1.2235433E0,6.844701E1,3.7086803E1,6.4243576E1,4.2034283E0,1.1901289E0,3.589667E1],"tree_param":{"num_deleted":"0","num_feature":"3","num_nodes":"13","size_leaf_vector":"1"}},{"base_weights":[-7.598435E-3,1.9716854E-1,-5.976618E-2,2.7985132E-1,-3.457732E-2,-7.9502004E-1,-1.6716532E-2,5.054924E-1,-1.7708543E-1,-6.992896E-3,-4.6998505E-2,2.836966E-1,-8.696793E-2,1.3126314E-2,6.0413178E-2,-3.8656343E-2,5.4487153E-3,-2.4996009E-2,2.3324123E-2,-1.570431E-2,4.6408684E-3],"categories":[],"categories_nodes":[],"categories_segments":[],"categories_sizes":[],"default_left":[0,0,0,0,0,0,0,0,0,0,0,0,0,0,0,0,0,0,0,0,0],"id":61,"left_children":[1,3,5,7,-1,9,11,13,15,-1,-1,17,19,-1,-1,-1,-1,-1,-1,-1,-1],"loss_changes":[1.1921748E0,1.8592426E0,2.7984543E0,2.3011842E0,0E0,3.331108E-1,1.8172815E0,2.1790352E0,1.4195719E0,0E0,0E0,2.5726655E0,2.871372E0,0E0,0E0,0E0,0E0,0E0,0E0,0E0,0E0],"parents":[2147483647,0,0,1,1,2,2,3,3,5,5,6,6,7,7,8,8,11,11,12,12],"right_children":[2,4,6,8,-1,10,12,14,16,-1,-1,18,20,-1,-1,-1,-1,-1,-1,-1,-1],"split_conditions":[-7.2110535E1,4.9288258E1,-5.9915882E1,8.547742E-2,-3.457732E-2,1.9513678E1,-2.7150124E1,7.0170656E-2,1.2934843E-1,-6.992896E-3,-4.6998505E-2,1.887289E1,-3.241346E0,1.3126314E-2,6.0413178E-2,-3.8656343E-2,5.4487153E-3,-2.4996009E-2,2.3324123E-2,-1.570431E-2,4.6408684E-3],"split_indices":[1,0,1,2,0,0,1,2,2,0,0,0,1,0,0,0,0,0,0,0,0],"split_type":[0,0,0,0,0,0,0,0,0,0,0,0,0,0,0,0,0,0,0,0,0],"sum_hessian":[1.0950038E2,2.166849E1,8.7831894E1,2.0450916E1,1.2175723E0,3.8920057E0,8.393989E1,1.3619282E1,6.831635E0,1.0610441E0,2.8309617E0,1.5333136E1,6.860675E1,1.1141081E1,2.4782007E0,1.6632882E0,5.168347E0,2.5719573E0,1.2761179E1,2.9982988E1,3.8623764E1],"tree_param":{"num_deleted":"0","num_feature":"3","num_nodes":"21","size_leaf_vector":"1"}},{"base_weights":[-7.8614745E-3,7.679866E-3,-3.4738887E-2,-3.5612006E-2,2.1620179E-2,6.45593E-1,-1.2400526E-2,6.5368876E-2,-4.856901E-3,-4.0703766E-2,4.4258806E-4],"categories":[],"categories_nodes":[],"categories_segments":[],"categories_sizes":[],"default_left":[0,0,0,0,0,0,0,0,0,0,0],"id":62,"left_children":[1,3,-1,-1,5,7,9,-1,-1,-1,-1],"loss_changes":[1.1836972E0,1.1085697E0,0E0,0E0,2.2969644E0,2.8765638E0,1.7660378E0,0E0,0E0,0E0,0E0],"parents":[2147483647,0,0,1,1,4,4,5,5,6,6],"right_children":[2,4,-1,-1,6,8,10,-1,-1,-1,-1],"split_conditions":[4.649524E1,8.7387295E0,-3.4738887E-2,-3.5612006E-2,1.5163313E1,-6.525127E1,1.6247583E1,6.5368876E-2,-4.856901E-3,-4.0703766E-2,4.4258806E-4],"split_indices":[1,0,0,0,0,1,0,0,0,0,0],"split_type":[0,0,0,0,0,0,0,0,0,0,0],"sum_hessian":[1.0937896E2,1.0792597E2,1.4529835E0,1.0986042E0,1.0682737E2,4.5939207E0,1.0223345E2,2.027319E0,2.5666018E0,1.6767846E0,1.0055666E2],"tree_param":{"num_deleted":"0","num_feature":"3","num_nodes":"11","size_leaf_vector":"1"}},{"base_weights":[-7.953961E-3,1.0100478E-2,-5.9084463E-1,-1.1286826E-2,5.1991105E-2,-8.530161E-3,-3.5259575E-2,7.4324615E-2,-1.4118236E-1,-3.9063287E-3,2.7772123E-2,-5.2476227E-2,-6.2102306E-4],"categories":[],"categories_nodes":[],"categories_segments":[],"categories_sizes":[],"default_left":[0,0,0,0,0,0,0,0,0,0,0,0,0],"id":63,"left_children":[1,3,5,7,-1,-1,-1,9,11,-1,-1,-1,-1],"loss_changes":[1.1672196E0,2.3905187E0,3.98041E-2,1.1982249E0,0E0,0E0,0E0,4.8132443E0,4.9897914E0,0E0,0E0,0E0,0E0],"parents":[2147483647,0,0,1,1,2,2,3,3,7,7,8,8],"right_children":[2,4,6,8,-1,-1,-1,10,12,-1,-1,-1,-1],"split_conditions":[7.1601295E1,6.7022095E1,1.9877472E1,5.2760713E-2,5.1991105E-2,-8.530161E-3,-3.5259575E-2,2.5811957E-2,5.982551E-2,-3.9063287E-3,2.7772123E-2,-5.2476227E-2,-6.2102306E-4],"split_indices":[0,0,1,2,0,0,0,2,2,0,0,0,0],"split_type":[0,0,0,0,0,0,0,0,0,0,0,0,0],"sum_hessian":[1.0934567E2,1.0701371E2,2.3319678E0,1.05805176E2,1.208533E0,1.0318282E0,1.3001397E0,6.4031296E1,4.177388E1,4.9259968E1,1.4771327E1,4.298625E0,3.7475254E1],"tree_param":{"num_deleted":"0","num_feature":"3","num_nodes":"13","size_leaf_vector":"1"}},{"base_weights":[-7.8102355E-3,2.303302E-1,-5.072866E-2,2.4683142E-4,9.157923E-1,3.4443814E-2,-7.127977E-2,-4.174083E-1,2.1245876E-1,5.8952887E-2,1.4559035E-2,-6.6208047E-1,-4.2933114E-2,1.54615E-2,-4.293738E-2,-2.2819294E-2,1.9430522E-2,-5.71052E-3,-4.0281426E-2,-3.3886954E-2,-8.2691835E-4],"categories":[],"categories_nodes":[],"categories_segments":[],"categories_sizes":[],"default_left":[0,0,0,0,0,0,0,0,0,0,0,0,0,0,0,0,0,0,0,0,0],"id":64,"left_children":[1,3,5,7,9,-1,11,13,15,-1,-1,17,19,-1,-1,-1,-1,-1,-1,-1,-1],"loss_changes":[1.1383553E0,2.6830611E0,1.4812417E0,1.3063262E0,3.597219E-1,0E0,1.5220394E0,1.8581008E0,1.3287151E0,0E0,0E0,2.3588634E-1,1.4869229E0,0E0,0E0,0E0,0E0,0E0,0E0,0E0,0E0],"parents":[2147483647,0,0,1,1,2,2,3,3,4,4,6,6,7,7,8,8,11,11,12,12],"right_children":[2,4,6,8,10,-1,12,14,16,-1,-1,18,20,-1,-1,-1,-1,-1,-1,-1,-1],"split_conditions":[2.142647E1,1.9513678E1,-2.2233126E-1,-1.22656524E-1,-2.4701113E1,3.4443814E-2,-1.7332979E-1,1.3922517E1,9.561254E0,5.8952887E-2,1.4559035E-2,2.5398325E1,2.2465809E1,1.54615E-2,-4.293738E-2,-2.2819294E-2,1.9430522E-2,-5.71052E-3,-4.0281426E-2,-3.3886954E-2,-8.2691835E-4],"split_indices":[0,0,2,2,1,0,2,0,0,0,0,0,0,0,0,0,0,0,0,0,0],"split_type":[0,0,0,0,0,0,0,0,0,0,0,0,0,0,0,0,0,0,0,0,0],"sum_hessian":[1.0923517E2,1.601369E1,9.322148E1,1.2738293E1,3.275397E0,1.6410842E0,9.15804E1,3.9659503E0,8.772343E0,1.6797426E0,1.5956545E0,3.1693008E0,8.8411095E1,1.6117079E0,2.3542423E0,1.4970818E0,7.275261E0,1.0307876E0,2.1385133E0,2.5442264E0,8.586687E1],"tree_param":{"num_deleted":"0","num_feature":"3","num_nodes":"21","size_leaf_vector":"1"}},{"base_weights":[-7.5081545E-3,7.5412304E-3,-3.4165874E-2,-3.4629624E-2,2.092742E-2,6.1680746E-1,-1.1858186E-2,6.1829038E-2,-4.6776365E-3,-3.9869662E-2,4.3185762E-4],"categories":[],"categories_nodes":[],"categories_segments":[],"categories_sizes":[],"default_left":[0,0,0,0,0,0,0,0,0,0,0],"id":65,"left_children":[1,3,-1,-1,5,7,9,-1,-1,-1,-1],"loss_changes":[1.1254092E0,1.0335917E0,0E0,0E0,2.110743E0,2.5960598E0,1.6657138E0,0E0,0E0,0E0,0E0],"parents":[2147483647,0,0,1,1,4,4,5,5,6,6],"right_children":[2,4,-1,-1,6,8,10,-1,-1,-1,-1],"split_conditions":[4.649524E1,8.7387295E0,-3.4165874E-2,-3.4629624E-2,1.5163313E1,-6.525127E1,1.6247583E1,6.1829038E-2,-4.6776365E-3,-3.9869662E-2,4.3185762E-4],"split_indices":[1,0,0,0,0,1,0,0,0,0,0],"split_type":[0,0,0,0,0,0,0,0,0,0,0],"sum_hessian":[1.0914744E2,1.07737114E2,1.4103227E0,1.069323E0,1.0666779E2,4.6338563E0,1.02033936E2,2.0791047E0,2.5547519E0,1.6306111E0,1.0040333E2],"tree_param":{"num_deleted":"0","num_feature":"3","num_nodes":"11","size_leaf_vector":"1"}},{"base_weights":[-7.62548E-3,1.6292894E-2,-4.3216637E-1,-7.2803413E-3,4.165114E-2,-6.108739E-1,5.084716E-4,3.2845207E-2,-3.5247672E-1,-8.478748E-3,-3.6317803E-2,9.584991E-5,5.0366968E-2,-4.6260227E-2,8.927091E-3],"categories":[],"categories_nodes":[],"categories_segments":[],"categories_sizes":[],"default_left":[0,0,0,0,0,0,0,0,0,0,0,0,0,0,0],"id":66,"left_children":[1,3,5,7,-1,9,-1,11,13,-1,-1,-1,-1,-1,-1],"loss_changes":[1.1251453E0,2.0315158E0,4.7331572E-1,1.4416033E0,0E0,9.214735E-2,0E0,2.813258E0,3.460843E0,0E0,0E0,0E0,0E0,0E0,0E0],"parents":[2147483647,0,0,1,1,2,2,3,3,5,5,7,7,8,8],"right_children":[2,4,6,8,-1,10,-1,12,14,-1,-1,-1,-1,-1,-1],"split_conditions":[1.5824535E-1,1.5613541E-1,2.4491031E-1,9.588132E-2,4.165114E-2,2.9268291E1,5.084716E-4,9.58383E-2,1.2934843E-1,-8.478748E-3,-3.6317803E-2,9.584991E-5,5.0366968E-2,-4.6260227E-2,8.927091E-3],"split_indices":[2,2,2,2,0,0,0,2,2,0,0,0,0,0,0],"split_type":[0,0,0,0,0,0,0,0,0,0,0,0,0,0,0],"sum_hessian":[1.09111084E2,1.0420203E2,4.9090567E0,1.022421E2,1.959923E0,3.225078E0,1.6839783E0,9.240573E1,9.836371E0,1.1808879E0,2.0441902E0,9.053435E1,1.8713851E0,4.3751984E0,5.4611726E0],"tree_param":{"num_deleted":"0","num_feature":"3","num_nodes":"15","size_leaf_vector":"1"}},{"base_weights":[-7.2037205E-3,1.0192278E-2,-5.7626593E-1,-1.5120594E-2,8.3459926E-1,-8.2017435E-3,-3.4526326E-2,4.298938E-3,-3.1518694E-2,1.1518338E-2,5.0569125E-2,